{"learner":{"attributes":{"best_iteration":"36","best_score":"0.01300015619869042","scikit_learn":"{\"_estimator_type\": \"classifier\"}"},"feature_names":["Engine_RPM","Coolant_Temp_C","Oil_Temp_C","Idle_Status","Engine_Load_Percent","Ignition_Timing_Deg","MAP_kPa","MAF_gps","Battery_Voltage_V","O2_Sensor_V","Catalytic_Converter_Percent","Vehicle_Speed_kmh","Tire_Pressure_psi","Ambient_Temp_C","Fuel_Level_Percent","Battery_Age_Months","Charging_System_Status_1","Charging_System_Status_2","Charging_System_Status_3","Charging_System_Status_4","Charging_System_Status_Fault","Charging_System_Status_Normal","EGR_Status_1","EGR_Status_2","EGR_Status_3","EGR_Status_4","EGR_Status_5","EGR_Status_Closed","EGR_Status_Open","EGR_Status_Stuck_Open","Transmission_Gear_1","Transmission_Gear_2","Transmission_Gear_3","Transmission_Gear_4","Transmission_Gear_5","Transmission_Gear_6","Transmission_Gear_7","Transmission_Gear_8","Transmission_Gear_9","Transmission_Gear_D","Transmission_Gear_N","Transmission_Gear_P","Transmission_Gear_R","Brake_Status_1","Brake_Status_2","Brake_Status_Engaged","Brake_Status_Released"],"feature_types":["float","float","float","int","float","float","float","float","float","float","float","float","float","float","float","float","float","float","float","float","float","float","float","float","float","float","float","float","float","float","float","float","float","float","float","float","float","float","float","float","float","float","float","float","float","float","float"],"gradient_booster":{"model":{"gbtree_model_param":{"num_parallel_tree":"1","num_trees":"235"},"iteration_indptr":[0,5,10,15,20,25,30,35,40,45,50,55,60,65,70,75,80,85,90,95,100,105,110,115,120,125,130,135,140,145,150,155,160,165,170,175,180,185,190,195,200,205,210,215,220,225,230,235],"tree_info":[0,1,2,3,4,0,1,2,3,4,0,1,2,3,4,0,1,2,3,4,0,1,2,3,4,0,1,2,3,4,0,1,2,3,4,0,1,2,3,4,0,1,2,3,4,0,1,2,3,4,0,1,2,3,4,0,1,2,3,4,0,1,2,3,4,0,1,2,3,4,0,1,2,3,4,0,1,2,3,4,0,1,2,3,4,0,1,2,3,4,0,1,2,3,4,0,1,2,3,4,0,1,2,3,4,0,1,2,3,4,0,1,2,3,4,0,1,2,3,4,0,1,2,3,4,0,1,2,3,4,0,1,2,3,4,0,1,2,3,4,0,1,2,3,4,0,1,2,3,4,0,1,2,3,4,0,1,2,3,4,0,1,2,3,4,0,1,2,3,4,0,1,2,3,4,0,1,2,3,4,0,1,2,3,4,0,1,2,3,4,0,1,2,3,4,0,1,2,3,4,0,1,2,3,4,0,1,2,3,4,0,1,2,3,4,0,1,2,3,4,0,1,2,3,4,0,1,2,3,4,0,1,2,3,4],"trees":[{"base_weights":[5.817939E-2,7.4924624E-1,-6.101264E-1,-6.164027E-1,6.8327403E-1,-6.2072426E-1,6.5759635E-1,-6.232906E-1,4.3613705E-1,1.3636363E0,1.9455252E-2,-2.6717556E-1,-1.8728384E-1,5.0583655E-1,3.3707865E-2,4.883721E-1,2.1428572E-1,-4.975124E-2,5.5555556E-2,4.6153846E-1,-1.7422096E-1,1.7796609E-1,7.142857E-2,-4.379562E-2,3.3707865E-2],"categories":[],"categories_nodes":[],"categories_segments":[],"categories_sizes":[],"default_left":[0,0,0,0,0,0,0,0,0,0,0,0,0,0,0,0,0,0,0,0,0,0,0,0,0],"id":0,"left_children":[1,-1,3,5,-1,7,9,11,13,15,17,19,-1,21,-1,-1,-1,23,-1,-1,-1,-1,-1,-1,-1],"loss_changes":[1.055957E4,0E0,9.35564E1,2.8345703E1,0E0,1.3989502E1,7.921228E0,1.6099854E0,2.3292637E-1,2.7182198E-1,1.2712055E-1,9.793749E0,0E0,9.927058E-2,0E0,0E0,0E0,1.4183164E-1,0E0,0E0,0E0,0E0,0E0,0E0,0E0],"parents":[2147483647,0,0,2,2,3,3,5,5,6,6,7,7,8,8,9,9,10,10,11,11,13,13,17,17],"right_children":[2,-1,4,6,-1,8,10,12,14,16,18,20,-1,22,-1,-1,-1,24,-1,-1,-1,-1,-1,-1,-1],"split_conditions":[1.1483661E1,7.4924624E-1,1E0,1E0,6.8327403E-1,1E0,1.2061729E-1,1.2007355E1,1E0,1E0,1E0,1E0,-1.8728384E-1,1E0,3.3707865E-2,4.883721E-1,2.1428572E-1,1E0,5.5555556E-2,4.6153846E-1,-1.7422096E-1,1.7796609E-1,7.142857E-2,-4.379562E-2,3.3707865E-2],"split_indices":[8,0,20,26,0,19,9,8,36,17,33,15,0,33,0,0,0,36,0,0,0,0,0,0,0],"split_type":[0,0,0,0,0,0,0,0,0,0,0,0,0,0,0,0,0,0,0,0,0,0,0,0,0],"sum_hessian":[6.4755205E3,1.3920001E3,5.0835205E3,5.0732803E3,1.0240001E1,5.05664E3,1.6640001E1,5.0448003E3,1.1840001E1,7.3600006E0,9.280001E0,1.4720001E1,5.0300806E3,9.280001E0,2.5600002E0,4.1600003E0,3.2000003E0,7.0400004E0,2.2400002E0,1.6000001E0,1.3120001E1,6.0800004E0,3.2000003E0,4.4800005E0,2.5600002E0],"tree_param":{"num_deleted":"0","num_feature":"47","num_nodes":"25","size_leaf_vector":"1"}},{"base_weights":[-1.0286388E-1,2.3060684E0,-6.157078E-1,-5.205479E-1,7.492958E-1,7.42496E-1,-6.2206084E-1,-1.846847E-1,4.0540537E-1,-1.7451523E-1,6.8686867E-1,-6.2337357E-1,-8.498583E-2,6.896551E-1,-1.15384616E-1,-4.028436E-1,-1.8729398E-1,9.433962E-2,-1.460177E-1,5.5555556E-2,2.8651685E-1,6.7415726E-1,-5.5360276E-1,4.7846887E-2,5.5555556E-2,-1.05263166E-1,4.2105266E-1,-5.0561797E-2,-1.7821781E-1,3.7190083E-2,-1.3274337E-2],"categories":[],"categories_nodes":[],"categories_segments":[],"categories_sizes":[],"default_left":[0,0,0,0,0,0,0,0,0,0,0,0,0,0,0,0,0,0,0,0,0,0,0,0,0,0,0,0,0,0,0],"id":1,"left_children":[1,3,5,7,-1,9,11,-1,13,-1,-1,15,17,19,-1,21,-1,23,-1,-1,-1,25,27,29,-1,-1,-1,-1,-1,-1,-1],"loss_changes":[8.0025537E3,6.170244E2,4.6543823E1,6.6756363E0,0E0,5.3203598E1,3.6950684E0,0E0,1.9270198E0,0E0,0E0,8.474121E-1,1.063153E0,5.996816E-1,0E0,4.484368E0,0E0,3.591024E-2,0E0,0E0,0E0,3.1539521E0,2.5444126E-1,6.409097E-2,0E0,0E0,0E0,0E0,0E0,0E0,0E0],"parents":[2147483647,0,0,1,1,2,2,3,3,5,5,6,6,8,8,11,11,12,12,13,13,15,15,17,17,21,21,22,22,23,23],"right_children":[2,4,6,8,-1,10,12,-1,14,-1,-1,16,18,20,-1,22,-1,24,-1,-1,-1,26,28,30,-1,-1,-1,-1,-1,-1,-1],"split_conditions":[8.384274E1,1E0,8.5E1,1E0,7.492958E-1,1.1483661E1,1E0,-1.846847E-1,1.5159212E1,-1.7451523E-1,6.8686867E-1,2.2895802E1,1.8092462E2,1E0,-1.15384616E-1,1.8352267E-1,-1.8729398E-1,1E0,-1.460177E-1,5.5555556E-2,2.8651685E-1,1.5911737E-1,2.0507804E-1,1E0,5.5555556E-2,-1.05263166E-1,4.2105266E-1,-5.0561797E-2,-1.7821781E-1,3.7190083E-2,-1.3274337E-2],"split_indices":[10,15,10,26,0,8,26,0,5,0,0,6,7,17,0,9,0,34,0,0,0,9,9,43,0,0,0,0,0,0,0],"split_type":[0,0,0,0,0,0,0,0,0,0,0,0,0,0,0,0,0,0,0,0,0,0,0,0,0,0,0,0,0,0,0],"sum_hessian":[6.4755205E3,1.1360001E3,5.3395205E3,7.200001E1,1.0640001E3,2.4320002E1,5.3152E3,6.5600006E1,6.4000006E0,1.3440001E1,1.0880001E1,5.3020806E3,1.3120001E1,4.8E0,1.6000001E0,2.4320002E1,5.2777603E3,9.6E0,3.5200002E0,2.2400002E0,2.5600002E0,2.5600002E0,2.1760002E1,7.3600006E0,2.2400002E0,1.2800001E0,1.2800001E0,2.5600002E0,1.92E1,3.8400002E0,3.5200002E0],"tree_param":{"num_deleted":"0","num_feature":"47","num_nodes":"31","size_leaf_vector":"1"}},{"base_weights":[8.272961E-2,-5.695026E-1,1.5646911E0,1.85446E0,-5.9254634E-1,-1.8680668E-1,1.9096905E0,-1.6666666E-1,7.283237E-1,-6.173922E-1,4.1420117E-2,2.1800015E0,-1.8636912E-1,-6.1994517E-1,4.0925264E-1,-5.5276376E-1,1.4426876E0,-1.8455742E-1,2.2986643E0,-6.229359E-1,-4.894548E-1,5.0295854E-1,6.569343E-2,-1.8578234E-1,1.4234875E-1,-1.6321245E-1,1.7593436E0,2.451343E0,2.0999937E0,-1.8723878E-1,-8.4352076E-2,-1.8555418E-1,6.046512E-1,1.7518248E-1,2.6315792E-2,6.9124424E-3,1.1797753E-1,6.677909E-1,3.4593573E-1,7.4111503E-1,-1.5686274E-1,-1.8222721E-1,6.758124E-1],"categories":[],"categories_nodes":[],"categories_segments":[],"categories_sizes":[],"default_left":[0,0,0,0,0,0,0,0,0,0,0,0,0,0,0,0,0,0,0,0,0,0,0,0,0,0,0,0,0,0,0,0,0,0,0,0,0,0,0,0,0,0,0],"id":2,"left_children":[1,3,5,7,9,-1,11,-1,-1,13,15,17,-1,19,21,23,25,-1,27,29,31,33,-1,-1,35,-1,37,39,41,-1,-1,-1,-1,-1,-1,-1,-1,-1,-1,-1,-1,-1,-1],"loss_changes":[6.2609854E3,2.5234229E2,1.4950537E3,6.0206055E1,7.0219604E1,0E0,1.1713091E3,0E0,0E0,1.1493652E1,1.4150867E2,5.139746E2,0E0,1.3647461E0,9.027076E-2,5.6082993E0,3.2790092E1,0E0,3.982373E1,1.5288086E0,3.3743484E1,1.7609787E-1,0E0,0E0,3.2741207E-1,0E0,9.845978E0,4.8428223E1,2.706306E2,0E0,0E0,0E0,0E0,0E0,0E0,0E0,0E0,0E0,0E0,0E0,0E0,0E0,0E0],"parents":[2147483647,0,0,1,1,2,2,3,3,4,4,6,6,9,9,10,10,11,11,13,13,14,14,15,15,16,16,18,18,19,19,20,20,21,21,24,24,26,26,27,27,28,28],"right_children":[2,4,6,8,10,-1,12,-1,-1,14,16,18,-1,20,22,24,26,-1,28,30,32,34,-1,-1,36,-1,38,40,42,-1,-1,-1,-1,-1,-1,-1,-1,-1,-1,-1,-1,-1,-1],"split_conditions":[1.1023957E2,5E2,8.5E1,7E1,1E0,-1.8680668E-1,1E2,-1.6666666E-1,7.283237E-1,1E0,3.2005198E3,8.4765495E1,-1.8636912E-1,1E0,1E0,3.0140063E3,1.8352267E-1,-1.8455742E-1,1.7391435E2,1.1E2,8.01339E1,1E0,6.569343E-2,-1.8578234E-1,1E0,-1.6321245E-1,9.209227E1,3.98E3,1.495E3,-1.8723878E-1,-8.4352076E-2,-1.8555418E-1,6.046512E-1,1.7518248E-1,2.6315792E-2,6.9124424E-3,1.1797753E-1,6.677909E-1,3.4593573E-1,7.4111503E-1,-1.5686274E-1,-1.8222721E-1,6.758124E-1],"split_indices":[1,0,10,4,44,0,4,0,0,19,0,4,0,16,26,0,9,0,7,1,4,34,0,0,36,0,10,0,0,0,0,0,0,0,0,0,0,0,0,0,0,0,0],"split_type":[0,0,0,0,0,0,0,0,0,0,0,0,0,0,0,0,0,0,0,0,0,0,0,0,0,0,0,0,0,0,0,0,0,0,0,0,0,0,0,0,0,0,0],"sum_hessian":[6.4755205E3,4.4969604E3,1.9785602E3,4.1600002E1,4.4553604E3,2.6944003E2,1.7091201E3,8.000001E0,3.3600002E1,4.2873604E3,1.6800002E2,1.5443201E3,1.6480002E2,4.27712E3,1.0240001E1,1.1840001E2,4.9600002E1,6.2720005E1,1.4816001E3,4.1776E3,9.9520004E1,5.76E0,4.4800005E0,1.0816001E2,1.0240001E1,6.7200003E0,4.2880005E1,8.3136005E2,6.5024005E2,4.16224E3,1.5360001E1,9.536001E1,4.1600003E0,4.4800005E0,1.2800001E0,7.6800003E0,2.5600002E0,2.2720001E1,2.0160002E1,8.2624005E2,5.1200004E0,3.456E1,6.1568005E2],"tree_param":{"num_deleted":"0","num_feature":"47","num_nodes":"43","size_leaf_vector":"1"}},{"base_weights":[6.0032237E-2,1.1010575E0,-6.1719644E-1,-5.594254E-1,2.042492E0,-1.8745168E-1,4.366812E-2,-5.9987557E-1,9.1999996E-1,-1.8670833E-1,2.4939008E0,-4.4461775E-1,6.3327026E-1,4.4444442E-1,-6.097342E-1,2.033195E0,2.0782395E-1,7.4946105E-1,-1.2328767E-1,-7.177033E-2,-1.7724288E-1,6.989247E-1,1.12359546E-1,-1.5328467E-1,4.513274E-1,-6.197579E-1,2.3131672E-1,2.3076923E-1,6.5671647E-1,-1.5328467E-1,5.218855E-1,-2.3809522E-1,7.751938E-2,3.3707865E-2,7.855361E-1,1.5789473E-1,-1.05263166E-1,-1.8727763E-1,-1.5284716E-1,8.6124405E-2,1.54639175E-2,1.8669528E-1,3.3707865E-2,-1.15384616E-1,-0E0,8.219178E-2,-3.7037037E-2,2.5203252E-1,2.6315792E-2],"categories":[],"categories_nodes":[],"categories_segments":[],"categories_sizes":[],"default_left":[0,0,0,0,0,0,0,0,0,0,0,0,0,0,0,0,0,0,0,0,0,0,0,0,0,0,0,0,0,0,0,0,0,0,0,0,0,0,0,0,0,0,0,0,0,0,0,0,0],"id":3,"left_children":[1,3,5,7,9,-1,11,13,15,-1,17,19,21,23,25,27,29,-1,-1,31,-1,33,35,-1,-1,37,39,-1,-1,-1,41,43,45,-1,47,-1,-1,-1,-1,-1,-1,-1,-1,-1,-1,-1,-1,-1,-1],"loss_changes":[4.5667056E3,3.9920847E3,1.984851E1,5.587799E1,1.9617158E3,0E0,1.3467129E1,9.542328E0,1.9397223E1,0E0,1.844629E1,1.3551636E0,6.4514256E-1,9.882967E0,7.6676636E0,2.1519852E-1,3.9597456E0,0E0,0E0,2.260408E-1,0E0,8.56678E-1,8.6733687E-1,0E0,0E0,1.1984253E-1,9.788102E-2,0E0,0E0,0E0,4.1869545E-1,1.4652014E-1,2.3755307E-1,0E0,5.3713226E-1,0E0,0E0,0E0,0E0,0E0,0E0,0E0,0E0,0E0,0E0,0E0,0E0,0E0,0E0],"parents":[2147483647,0,0,1,1,2,2,3,3,4,4,6,6,7,7,8,8,10,10,11,11,12,12,13,13,14,14,15,15,16,16,19,19,21,21,22,22,25,25,26,26,30,30,31,31,32,32,34,34],"right_children":[2,4,6,8,10,-1,12,14,16,-1,18,20,22,24,26,28,30,-1,-1,32,-1,34,36,-1,-1,38,40,-1,-1,-1,42,44,46,-1,48,-1,-1,-1,-1,-1,-1,-1,-1,-1,-1,-1,-1,-1,-1],"split_conditions":[1E2,9.5E1,1E0,1E0,1.1483661E1,-1.8745168E-1,9.209227E1,2.2895802E1,2.521E3,-1.8670833E-1,1E0,9.005049E1,1.281187E1,1.1483661E1,1E0,3.2011163E-1,3.8099435E-1,7.4946105E-1,-1.2328767E-1,1.002216E2,-1.7724288E-1,2.2895802E1,2.2895802E1,-1.5328467E-1,4.513274E-1,1E0,1E0,2.3076923E-1,6.5671647E-1,-1.5328467E-1,1E0,6.0052603E-1,6.0052603E-1,3.3707865E-2,1E0,1.5789473E-1,-1.05263166E-1,-1.8727763E-1,-1.5284716E-1,8.6124405E-2,1.54639175E-2,1.8669528E-1,3.3707865E-2,-1.15384616E-1,-0E0,8.219178E-2,-3.7037037E-2,2.5203252E-1,2.6315792E-2],"split_indices":[2,10,18,44,8,0,10,6,0,0,20,1,8,8,19,9,9,0,0,2,0,6,6,0,0,16,23,0,0,0,36,9,9,0,32,0,0,0,0,0,0,0,0,0,0,0,0,0,0],"split_type":[0,0,0,0,0,0,0,0,0,0,0,0,0,0,0,0,0,0,0,0,0,0,0,0,0,0,0,0,0,0,0,0,0,0,0,0,0,0,0,0,0,0,0,0,0,0,0,0,0],"sum_hessian":[6.4755205E3,2.5520002E3,3.9235203E3,9.235201E2,1.6284801E3,3.8787202E3,4.4800003E1,8.995201E2,2.4000002E1,2.3584001E2,1.3926401E3,2.4640001E1,2.0160002E1,8.000001E0,8.915201E2,8.64E0,1.5360001E1,1.3907201E3,1.9200001E0,7.3600006E0,1.728E1,1.76E1,2.5600002E0,4.4800005E0,3.5200002E0,8.812801E2,1.0240001E1,1.6000001E0,7.0400004E0,4.4800005E0,1.0880001E1,3.2000003E0,4.1600003E0,2.5600002E0,1.5040001E1,1.2800001E0,1.2800001E0,8.4224005E2,3.904E1,7.3600006E0,2.88E0,8.320001E0,2.5600002E0,1.6000001E0,1.6000001E0,1.9200001E0,2.2400002E0,1.3760001E1,1.2800001E0],"tree_param":{"num_deleted":"0","num_feature":"47","num_nodes":"49","size_leaf_vector":"1"}},{"base_weights":[-9.807736E-2,-2.9485825E-1,7.4835885E-1,-6.2358594E-1,9.611888E-2,-1.8744223E-1,-4.4461775E-1,9.1877216E-1,-3.4315145E-1,-5.5829227E-1,2.8947368E-1,-1.8707359E-1,2.2235491E0,6.0004956E-1,-4.3608135E-1,2.6315792E-2,-1.7937608E-1,-1.8236583E-1,2.43279E0,-1.8555418E-1,2.3711338E0,-5.7783383E-1,-2.6022E-1,-1.6981132E-1,7.484176E-1,-1.2328767E-1,7.382886E-1,-1.799358E-1,6.486486E-1,7.2981703E-1,-1.21164136E-1],"categories":[],"categories_nodes":[],"categories_segments":[],"categories_sizes":[],"default_left":[0,0,0,0,0,0,0,0,0,0,0,0,0,0,0,0,0,0,0,0,0,0,0,0,0,0,0,0,0,0,0],"id":4,"left_children":[1,3,-1,5,7,-1,9,11,13,15,-1,-1,17,19,21,-1,-1,-1,23,-1,25,27,29,-1,-1,-1,-1,-1,-1,-1,-1],"loss_changes":[3.304897E3,7.738473E2,0E0,4.3725586E-1,9.943497E2,0E0,4.6469383E0,1.9288865E3,1.5750514E2,6.760683E-1,0E0,0E0,3.090088E2,3.4962396E2,4.057428E1,0E0,0E0,0E0,9.122485E1,0E0,1.7495422E1,5.5654633E1,2.8375317E2,0E0,0E0,0E0,0E0,0E0,0E0,0E0,0E0],"parents":[2147483647,0,0,1,1,3,3,4,4,6,6,7,7,8,8,9,9,12,12,13,13,14,14,18,18,20,20,21,21,22,22],"right_children":[2,4,-1,6,8,-1,10,12,14,16,-1,-1,18,20,22,-1,-1,-1,24,-1,26,28,30,-1,-1,-1,-1,-1,-1,-1,-1],"split_conditions":[1E2,7.206923E1,7.4835885E-1,7.13294E1,1.0953104E2,-1.8744223E-1,1E0,3E-1,8.4765495E1,1.131E3,2.8947368E-1,-1.8707359E-1,1E0,2.939977E-1,1.7391435E2,2.6315792E-2,-1.7937608E-1,-1.8236583E-1,2.9011768E1,-1.8555418E-1,1.0926782E1,3.98E3,1.495E3,-1.6981132E-1,7.484176E-1,-1.2328767E-1,7.382886E-1,-1.799358E-1,6.486486E-1,7.2981703E-1,-1.21164136E-1],"split_indices":[4,4,0,4,1,0,27,9,4,0,0,0,21,9,7,0,0,0,6,0,8,0,0,0,0,0,0,0,0,0,0],"split_type":[0,0,0,0,0,0,0,0,0,0,0,0,0,0,0,0,0,0,0,0,0,0,0,0,0,0,0,0,0,0,0],"sum_hessian":[6.4755205E3,6.0195205E3,4.5600003E2,3.2697603E3,2.7497603E3,3.24512E3,2.4640001E1,9.5680005E2,1.7929601E3,2.3360003E1,1.2800001E0,4.3872003E2,5.1808E2,1.6032E2,1.6326401E3,1.2800001E0,2.2080002E1,3.5520004E1,4.8256003E2,9.536001E1,6.496001E1,9.027201E2,7.2992004E2,9.6E0,4.7296002E2,1.9200001E0,6.3040005E1,8.9632007E2,6.4000006E0,3.6160004E1,6.937601E2],"tree_param":{"num_deleted":"0","num_feature":"47","num_nodes":"31","size_leaf_vector":"1"}},{"base_weights":[4.5462307E-2,1.2741901E0,-5.818135E-1,3.8513038E-1,-1.6228192E-1,-5.8659405E-1,4.9354026E-1,-1.7687747E-1,3.3343375E-1,9.432265E-1,2.5282562E-2,3.849314E-1,2.5304034E-2,3.3592263E-1,1.5865092E-1,-3.597664E-2,4.9149256E-2,1.3335562E-1,1.9047117E-1,-1.2121408E-1,2.9603215E-2,1.02921285E-1,-9.613237E-3,-5.4541502E-2,4.4114483E-3],"categories":[],"categories_nodes":[],"categories_segments":[],"categories_sizes":[],"default_left":[0,0,0,0,0,0,0,0,0,0,0,0,0,0,0,0,0,0,0,0,0,0,0,0,0],"id":5,"left_children":[1,3,5,-1,-1,7,9,-1,11,13,15,17,-1,-1,-1,19,-1,-1,21,23,-1,-1,-1,-1,-1],"loss_changes":[4.784568E3,3.716797E1,2.1416382E1,0E0,0E0,1.1481567E1,3.9205327E0,0E0,1.4618564E-1,1.0477352E-1,9.2499554E-2,4.5814633E-2,0E0,0E0,0E0,1.0258248E-1,0E0,0E0,1.6009249E-1,4.618711E-2,0E0,0E0,0E0,0E0,0E0],"parents":[2147483647,0,0,1,1,2,2,5,5,6,6,8,8,9,9,10,10,11,11,15,15,18,18,19,19],"right_children":[2,4,6,-1,-1,8,10,-1,12,14,16,18,-1,-1,-1,20,-1,-1,22,24,-1,-1,-1,-1,-1],"split_conditions":[1.2007355E1,1E0,1E0,3.8513038E-1,-1.6228192E-1,1E0,1.2061729E-1,-1.7687747E-1,1E0,1E0,1E0,1E0,2.5304034E-2,3.3592263E-1,1.5865092E-1,1E0,4.9149256E-2,1.3335562E-1,1E0,1E0,2.9603215E-2,1.02921285E-1,-9.613237E-3,-5.4541502E-2,4.4114483E-3],"split_indices":[8,21,26,0,0,19,9,0,36,17,33,33,0,0,0,36,0,0,23,35,0,0,0,0,0],"split_type":[0,0,0,0,0,0,0,0,0,0,0,0,0,0,0,0,0,0,0,0,0,0,0,0,0],"sum_hessian":[6.205706E3,2.0970017E3,4.1087046E3,2.086286E3,1.0715781E1,4.0909727E3,1.7732002E1,4.0780452E3,1.2927499E1,8.527947E0,9.204056E0,1.0260763E1,2.6667364E0,4.7867975E0,3.7411497E0,6.895526E0,2.3085294E0,6.869784E0,3.3909788E0,4.2837057E0,2.6118205E0,1.6901189E0,1.7008598E0,2.7293825E0,1.5543231E0],"tree_param":{"num_deleted":"0","num_feature":"47","num_nodes":"25","size_leaf_vector":"1"}},{"base_weights":[-8.608107E-2,1.2088765E0,-5.8701324E-1,-4.909204E-1,3.854453E-1,-5.8854645E-1,-5.9786882E-2,-1.7452978E-1,3.2423255E-1,-3.5363358E-1,-1.76888E-1,9.084073E-2,-1.3408901E-1,5.437752E-1,-1.1004403E-1,5.6610876E-1,-5.144356E-1,5.2539553E-2,4.7797155E-2,5.2490104E-2,2.1162534E-1,-9.36634E-2,3.1210577E-1,-1.2663646E-1,-1.6804948E-1,1.2639323E-1,-3.859125E-2,3.8805597E-2,-9.7820245E-2,5.360659E-2,3.207268E-3,-3.613285E-2,2.8573979E-2],"categories":[],"categories_nodes":[],"categories_segments":[],"categories_sizes":[],"default_left":[0,0,0,0,0,0,0,0,0,0,0,0,0,0,0,0,0,0,0,0,0,0,0,0,0,0,0,0,0,0,0,0,0],"id":6,"left_children":[1,3,5,7,-1,9,11,-1,13,15,-1,17,-1,19,-1,21,23,25,-1,-1,-1,-1,-1,27,-1,29,31,-1,-1,-1,-1,-1,-1],"loss_changes":[3.88062E3,2.16031E2,3.4516602E0,5.5268116E0,0E0,8.829346E-1,8.34952E-1,0E0,1.3934956E0,3.5723827E0,0E0,1.9529589E-2,0E0,2.5665617E-1,0E0,1.8983405E0,2.732377E-1,6.083166E-2,0E0,0E0,0E0,0E0,0E0,2.1265467E-1,0E0,2.7290657E-2,6.0633037E-2,0E0,0E0,0E0,0E0,0E0,0E0],"parents":[2147483647,0,0,1,1,2,2,3,3,5,5,6,6,8,8,9,9,11,11,13,13,15,15,16,16,17,17,23,23,25,25,26,26],"right_children":[2,4,6,8,-1,10,12,-1,14,16,-1,18,-1,20,-1,22,24,26,-1,-1,-1,-1,-1,28,-1,30,32,-1,-1,-1,-1,-1,-1],"split_conditions":[8.5E1,1E0,1E0,1E0,3.854453E-1,2.2895802E1,1.8092462E2,-1.7452978E-1,1.5159212E1,1.8352267E-1,-1.76888E-1,1E0,-1.3408901E-1,1E0,-1.1004403E-1,1.5911737E-1,2.0507804E-1,1E0,4.7797155E-2,5.2490104E-2,2.1162534E-1,-9.36634E-2,3.1210577E-1,1E0,-1.6804948E-1,1E0,1E0,3.8805597E-2,-9.7820245E-2,5.360659E-2,3.207268E-3,-3.613285E-2,2.8573979E-2],"split_indices":[10,15,26,26,0,6,7,0,5,9,0,34,0,17,0,9,9,43,0,0,0,0,0,24,0,33,33,0,0,0,0,0,0],"split_type":[0,0,0,0,0,0,0,0,0,0,0,0,0,0,0,0,0,0,0,0,0,0,0,0,0,0,0,0,0,0,0,0,0],"sum_hessian":[5.980186E3,1.6676746E3,4.312511E3,7.108603E1,1.5965885E3,4.2998906E3,1.262066E1,6.421575E1,6.870275E0,2.1185507E1,4.278705E3,9.636889E0,2.9837708E0,5.3755846E0,1.49469E0,2.7776415E0,1.8407866E1,7.3136864E0,2.3232024E0,2.2726572E0,3.1029277E0,1.0937093E0,1.6839323E0,2.339283E0,1.6068583E1,3.826055E0,3.4876316E0,1.1782646E0,1.1610185E0,2.2601333E0,1.5659218E0,2.2262201E0,1.2614114E0],"tree_param":{"num_deleted":"0","num_feature":"47","num_nodes":"33","size_leaf_vector":"1"}},{"base_weights":[6.6744186E-2,-5.286901E-1,9.2745525E-1,1.0622933E0,-5.535767E-1,-1.761353E-1,1.0685265E0,-1.5414211E-1,3.8299787E-1,-5.8132267E-1,3.9359782E-2,1.1688538E0,-1.7574035E-1,-5.8429515E-1,3.1766382E-1,-5.0945735E-1,8.835598E-1,-1.7379354E-1,1.2104695E0,-5.8566177E-1,-2.569552E-1,2.1449731E-1,1.385038E-1,-1.7545177E-1,1.2129869E-1,-1.5226887E-1,1.0257432E0,1.0453621E0,1.2619908E0,-1.7671666E-1,-1.3234293E-1,3.7825695E-1,-1.6698019E-1,6.963558E-2,1.9631656E-2,5.7958595E-2,-3.6549743E-2,2.4689165E-1,3.9055908E-1,3.6162758E-1,-8.266933E-2,3.7951493E-1,1.6497502E-1],"categories":[],"categories_nodes":[],"categories_segments":[],"categories_sizes":[],"default_left":[0,0,0,0,0,0,0,0,0,0,0,0,0,0,0,0,0,0,0,0,0,0,0,0,0,0,0,0,0,0,0,0,0,0,0,0,0,0,0,0,0,0,0],"id":7,"left_children":[1,3,5,7,9,-1,11,-1,-1,13,15,17,-1,19,21,23,25,-1,27,29,31,33,-1,-1,35,-1,37,39,41,-1,-1,-1,-1,-1,-1,-1,-1,-1,-1,-1,-1,-1,-1],"loss_changes":[3.2028196E3,1.4685071E2,5.466294E2,1.9993828E1,5.9870605E1,0E0,3.887412E2,0E0,0E0,9.472412E0,7.622709E1,1.6109644E2,0E0,1.3991699E0,8.076191E-2,4.813923E0,1.3338249E1,0E0,1.7001953E1,1.4317627E0,8.0622425E0,8.2348585E-3,0E0,0E0,2.2415935E-1,0E0,2.2389412E0,1.0986658E2,2.8693848E0,0E0,0E0,0E0,0E0,0E0,0E0,0E0,0E0,0E0,0E0,0E0,0E0,0E0,0E0],"parents":[2147483647,0,0,1,1,2,2,3,3,4,4,6,6,9,9,10,10,11,11,13,13,14,14,15,15,16,16,18,18,19,19,20,20,21,21,24,24,26,26,27,27,28,28],"right_children":[2,4,6,8,10,-1,12,-1,-1,14,16,18,-1,20,22,24,26,-1,28,30,32,34,-1,-1,36,-1,38,40,42,-1,-1,-1,-1,-1,-1,-1,-1,-1,-1,-1,-1,-1,-1],"split_conditions":[1.1023957E2,5E2,8.5E1,7E1,1E0,-1.761353E-1,1E2,-1.5414211E-1,3.8299787E-1,1E0,3.2005198E3,8.4765495E1,-1.7574035E-1,1.1E2,1E0,3.0140063E3,1.8352267E-1,-1.7379354E-1,1.180766E2,1E0,5.267001E1,1E0,1.385038E-1,-1.7545177E-1,1E0,-1.5226887E-1,9.005049E1,7.176929E1,1E0,-1.7671666E-1,-1.3234293E-1,3.7825695E-1,-1.6698019E-1,6.963558E-2,1.9631656E-2,5.7958595E-2,-3.6549743E-2,2.4689165E-1,3.9055908E-1,3.6162758E-1,-8.266933E-2,3.7951493E-1,1.6497502E-1],"split_indices":[1,0,10,4,44,0,4,0,0,19,0,4,0,1,23,0,9,0,1,16,7,34,0,0,35,0,1,6,42,0,0,0,0,0,0,0,0,0,0,0,0,0,0],"split_type":[0,0,0,0,0,0,0,0,0,0,0,0,0,0,0,0,0,0,0,0,0,0,0,0,0,0,0,0,0,0,0,0,0,0,0,0,0,0,0,0,0,0,0],"sum_hessian":[6.2474854E3,3.6930461E3,2.5544395E3,5.62359E1,3.63681E3,2.173849E2,2.3370547E3,6.5656834E0,4.967022E1,3.4742551E3,1.6255508E2,2.2037039E3,1.333508E2,3.463154E3,1.1100951E1,9.875237E1,6.3802715E1,5.0939865E1,2.152764E3,3.4479705E3,1.5183734E1,7.9181414E0,3.18281E0,8.827535E1,1.0477024E1,5.6781263E0,5.8124588E1,5.170602E2,1.6357037E3,3.3658542E3,8.211619E1,1.9744765E0,1.3209257E1,6.582719E0,1.3354223E0,8.244438E0,2.2325864E0,3.5808693E1,2.2315895E1,4.6125504E2,5.580513E1,1.627934E3,7.7697763E0],"tree_param":{"num_deleted":"0","num_feature":"47","num_nodes":"43","size_leaf_vector":"1"}},{"base_weights":[4.697471E-2,7.103922E-1,-5.81414E-1,-5.1637614E-1,1.1237417E0,-1.7708747E-1,5.3470604E-2,-5.611526E-1,6.23764E-1,-1.7611061E-1,1.2816858E0,3.5991564E-1,-1.6674608E-1,3.5190496E-1,-5.7227826E-1,1.1468736E0,1.00255534E-1,3.8495722E-1,-1.11996196E-1,-2.3370152E-2,4.717785E-1,-1.3998207E-1,2.876072E-1,-5.8390737E-1,1.8271662E-1,3.8505298E-1,6.269141E-1,-1.3902795E-1,2.906344E-1,-1.9403462E-1,1.1567023E-1,2.7284947E-1,6.0890317E-1,-1.7676526E-1,-1.3774891E-1,6.795264E-2,1.1457721E-2,-1.1203321E-1,3.293327E-1,5.5935398E-2,1.3416368E-1,1.607411E-2,-1.08160466E-1,8.506786E-2,-2.4444537E-2,1.8155483E-3,1.7109331E-1,1.9877435E-1,2.1544306E-2],"categories":[],"categories_nodes":[],"categories_segments":[],"categories_sizes":[],"default_left":[0,0,0,0,0,0,0,0,0,0,0,0,0,0,0,0,0,0,0,0,0,0,0,0,0,0,0,0,0,0,0,0,0,0,0,0,0,0,0,0,0,0,0,0,0,0,0,0,0],"id":8,"left_children":[1,3,5,7,9,-1,11,13,15,-1,17,19,-1,21,23,25,27,-1,-1,29,31,-1,-1,33,35,-1,37,-1,39,41,43,45,47,-1,-1,-1,-1,-1,-1,-1,-1,-1,-1,-1,-1,-1,-1,-1,-1],"loss_changes":[2.5892996E3,1.5326318E3,1.8010132E1,3.9257614E1,6.114668E2,0E0,8.584404E0,7.656143E0,7.901579E0,0E0,5.633545E0,1.3180683E0,0E0,5.142578E0,6.4756165E0,2.2880745E-1,1.8223867E0,0E0,0E0,2.0847718E-1,4.7884655E-1,0E0,0E0,2.0285034E-1,6.581277E-2,0E0,2.7565744E0,0E0,1.1841953E-1,1.7982353E-1,1.8683897E-1,9.0604115E-1,3.3253145E-1,0E0,0E0,0E0,0E0,0E0,0E0,0E0,0E0,0E0,0E0,0E0,0E0,0E0,0E0,0E0,0E0],"parents":[2147483647,0,0,1,1,2,2,3,3,4,4,6,6,7,7,8,8,10,10,11,11,13,13,14,14,15,15,16,16,19,19,20,20,23,23,24,24,26,26,28,28,29,29,30,30,31,31,32,32],"right_children":[2,4,6,8,10,-1,12,14,16,-1,18,20,-1,22,24,26,28,-1,-1,30,32,-1,-1,34,36,-1,38,-1,40,42,44,46,48,-1,-1,-1,-1,-1,-1,-1,-1,-1,-1,-1,-1,-1,-1,-1,-1],"split_conditions":[1E2,9.5E1,1E0,1E0,1.1483661E1,-1.7708747E-1,9.005049E1,2.2895802E1,6.1158333E1,-1.7611061E-1,1E0,9.004605E1,-1.6674608E-1,1.1483661E1,1E0,1.5006641E3,1E0,3.8495722E-1,-1.11996196E-1,1.002216E2,6.2111294E-1,-1.3998207E-1,2.876072E-1,1E0,1E0,3.8505298E-1,3.8099435E-1,-1.3902795E-1,1E0,1E0,6.0052603E-1,1.02235756E2,1E0,-1.7676526E-1,-1.3774891E-1,6.795264E-2,1.1457721E-2,-1.1203321E-1,3.293327E-1,5.5935398E-2,1.3416368E-1,1.607411E-2,-1.08160466E-1,8.506786E-2,-2.4444537E-2,1.8155483E-3,1.7109331E-1,1.9877435E-1,2.1544306E-2],"split_indices":[2,10,18,44,8,0,1,6,4,0,20,10,0,8,19,0,3,0,0,2,9,0,0,16,23,0,9,0,23,23,9,2,32,0,0,0,0,0,0,0,0,0,0,0,0,0,0,0,0],"split_type":[0,0,0,0,0,0,0,0,0,0,0,0,0,0,0,0,0,0,0,0,0,0,0,0,0,0,0,0,0,0,0,0,0,0,0,0,0,0,0,0,0,0,0,0,0,0,0,0,0],"sum_hessian":[6.209088E3,3.020297E3,3.1887908E3,7.6112537E2,2.2591719E3,3.144886E3,4.3904766E1,7.3285205E2,2.8273302E1,1.9071532E2,2.0684565E3,2.9484644E1,1.4420122E1,8.45362E0,7.2439844E2,1.3546439E1,1.4726864E1,2.0668018E3,1.6547248E0,6.8398232E0,2.2644821E1,3.6972735E0,4.756347E0,7.1363306E2,1.0765417E1,9.564557E0,3.9818816E0,3.3560102E0,1.1370853E1,2.8931332E0,3.94669E0,1.0460047E1,1.2184773E1,6.809237E2,3.2709305E1,7.8266096E0,2.9388072E0,1.3406104E0,2.641271E0,8.143293E0,3.2275598E0,1.4358981E0,1.4572351E0,1.8948276E0,2.0518625E0,6.052139E0,4.4079084E0,1.0865224E1,1.3195491E0],"tree_param":{"num_deleted":"0","num_feature":"47","num_nodes":"49","size_leaf_vector":"1"}},{"base_weights":[-7.954677E-2,-2.537126E-1,3.8488886E-1,-5.885823E-1,7.9701565E-2,-1.7700365E-1,-3.8917112E-1,-1.7755726E-1,4.2353863E-1,-5.1421064E-1,2.2283414E-1,1.1893837E0,-1.3272588E-1,-1.682419E-1,4.1777026E-2,-1.7140473E-1,1.2617642E0,1.2482021E0,-2.7590823E-1,-1.5831394E-1,3.8483196E-1,-1.1029675E-1,3.839163E-1,-1.5236284E-1,-4.618504E-3],"categories":[],"categories_nodes":[],"categories_segments":[],"categories_sizes":[],"default_left":[0,0,0,0,0,0,0,0,0,0,0,0,0,0,0,0,0,0,0,0,0,0,0,0,0],"id":9,"left_children":[1,3,-1,5,7,-1,9,-1,11,13,-1,15,17,-1,-1,-1,19,21,23,-1,-1,-1,-1,-1,-1],"loss_changes":[1.420534E3,5.9261084E2,0E0,5.253906E-1,6.145371E2,0E0,3.4660287E0,0E0,7.4996375E2,6.935587E-1,0E0,9.510852E1,2.0210838E2,0E0,0E0,0E0,2.7433105E1,5.3620605E0,5.591381E1,0E0,0E0,0E0,0E0,0E0,0E0],"parents":[2147483647,0,0,1,1,3,3,4,4,6,6,8,8,9,9,11,11,12,12,16,16,17,17,18,18],"right_children":[2,4,-1,6,8,-1,10,-1,12,14,-1,16,18,-1,-1,-1,20,22,24,-1,-1,-1,-1,-1,-1],"split_conditions":[1E2,7.206923E1,3.8488886E-1,7.13294E1,3E-1,-1.7700365E-1,1E0,-1.7755726E-1,1.0953104E2,5.8E1,2.2283414E-1,1E0,8.4765495E1,-1.682419E-1,4.1777026E-2,-1.7140473E-1,2.9011768E1,1.0926782E1,1.7391435E2,-1.5831394E-1,3.8483196E-1,-1.1029675E-1,3.839163E-1,-1.5236284E-1,-4.618504E-3],"split_indices":[4,4,0,4,9,0,27,0,1,15,0,21,4,0,0,0,6,8,7,0,0,0,0,0,0],"split_type":[0,0,0,0,0,0,0,0,0,0,0,0,0,0,0,0,0,0,0,0,0,0,0,0,0],"sum_hessian":[5.9837993E3,5.306321E3,6.774785E2,2.647E3,2.6593208E3,2.6262104E3,2.0789682E1,9.0026447E2,1.7590565E3,1.9213066E1,1.5766152E0,7.396267E2,1.01942975E3,1.806662E1,1.1464462E0,2.8931973E1,7.106947E2,9.504517E1,9.243846E2,7.967041E0,7.0272766E2,1.6144271E0,9.343075E1,4.8847977E2,4.3590482E2],"tree_param":{"num_deleted":"0","num_feature":"47","num_nodes":"25","size_leaf_vector":"1"}},{"base_weights":[3.847133E-2,9.4104135E-1,-5.575548E-1,9.4706887E-1,-1.5316653E-1,-5.630141E-1,3.8981518E-1,2.8435037E-1,5.424611E-1,-1.6995889E-1,2.6169705E-1,7.030845E-1,2.7774079E-2,2.0811069E-1,8.191159E-2,3.0150217E-1,1.9315267E-2,4.5328432E-1,2.8558463E-1,-2.6971074E-2,4.388964E-2,1.0276208E-1,1.580755E-1,1.8980224E-1,5.3876963E-2,-1.0362837E-1,2.6520608E-2,9.421119E-2,-1.6210383E-2,-4.7106236E-2,3.376998E-3],"categories":[],"categories_nodes":[],"categories_segments":[],"categories_sizes":[],"default_left":[0,0,0,0,0,0,0,0,0,0,0,0,0,0,0,0,0,0,0,0,0,0,0,0,0,0,0,0,0,0,0],"id":10,"left_children":[1,3,5,7,-1,9,11,-1,13,-1,15,17,19,-1,-1,21,-1,23,-1,25,-1,-1,27,-1,-1,29,-1,-1,-1,-1,-1],"loss_changes":[2.9723599E3,1.9710693E1,1.7430664E1,1.6418457E-1,0E0,9.742432E0,2.2099774E0,0E0,7.433224E-2,0E0,9.627962E-2,2.2109222E-1,6.9871366E-2,0E0,0E0,1.6401052E-2,0E0,2.3732734E-1,0E0,7.80956E-2,0E0,0E0,1.6660957E-1,0E0,0E0,3.3316143E-2,0E0,0E0,0E0,0E0,0E0],"parents":[2147483647,0,0,1,1,2,2,3,3,5,5,6,6,8,8,10,10,11,11,12,12,15,15,17,17,19,19,22,22,25,25],"right_children":[2,4,6,8,-1,10,12,-1,14,-1,16,18,20,-1,-1,22,-1,24,-1,26,-1,-1,28,-1,-1,30,-1,-1,-1,-1,-1],"split_conditions":[1.2007355E1,1E0,1E0,1E0,-1.5316653E-1,1E0,1.2061729E-1,2.8435037E-1,1.02235756E2,-1.6995889E-1,1E0,1.5159212E1,1E0,2.0811069E-1,8.191159E-2,1E0,1.9315267E-2,1E0,2.8558463E-1,1E0,4.388964E-2,1.0276208E-1,1E0,1.8980224E-1,5.3876963E-2,1E0,2.6520608E-2,9.421119E-2,-1.6210383E-2,-4.7106236E-2,3.376998E-3],"split_indices":[8,21,26,26,0,19,9,0,2,0,36,5,33,0,0,33,0,17,0,36,0,0,43,0,0,35,0,0,0,0,0],"split_type":[0,0,0,0,0,0,0,0,0,0,0,0,0,0,0,0,0,0,0,0,0,0,0,0,0,0,0,0,0,0,0],"sum_hessian":[5.523316E3,2.1965195E3,3.3267964E3,2.1877827E3,8.736797E0,3.308139E3,1.8657698E1,2.18231E3,5.472494E0,3.2944087E3,1.3730158E1,9.497572E0,9.160125E0,2.4963717E0,2.9761226E0,1.098587E1,2.744288E0,6.1479316E0,3.3496408E0,6.7943425E0,2.3657823E0,7.4624176E0,3.5234525E0,2.9214766E0,3.2264547E0,4.1432457E0,2.6510968E0,1.7535504E0,1.7699022E0,2.578249E0,1.5649967E0],"tree_param":{"num_deleted":"0","num_feature":"47","num_nodes":"31","size_leaf_vector":"1"}},{"base_weights":[-7.7639885E-2,8.99267E-1,-5.634799E-1,-4.5426154E-1,2.8415307E-1,-5.653052E-1,-4.0040378E-2,-1.6718946E-1,2.7475765E-1,-3.1355426E-1,-1.6996449E-1,8.6539686E-2,-1.2379096E-1,4.5372376E-1,-1.0416251E-1,4.8381552E-1,-4.808099E-1,1.0410585E-1,-2.1501766E-3,2.5918491E-2,5.2453214E-1,1.5564089E-2,2.117029E-1,-8.818127E-2,-1.6002199E-1,2.9361103E-2,5.1597327E-2,1.7729299E-1,3.995076E-2,4.395566E-2,-8.82629E-2,1.0006423E-3,1.8967438E-2],"categories":[],"categories_nodes":[],"categories_segments":[],"categories_sizes":[],"default_left":[0,0,0,0,0,0,0,0,0,0,0,0,0,0,0,0,0,0,0,0,0,0,0,0,0,0,0,0,0,0,0,0,0],"id":11,"left_children":[1,3,5,7,-1,9,11,-1,13,15,-1,17,-1,19,-1,21,23,25,-1,-1,27,-1,-1,29,-1,31,-1,-1,-1,-1,-1,-1,-1],"loss_changes":[2.4782544E3,1.1289685E2,3.309204E0,4.657504E0,0E0,9.0966797E-1,6.5799236E-1,0E0,1.0586638E0,2.8083959E0,0E0,1.8318139E-2,0E0,1.2947428E-1,0E0,3.3206856E-1,2.9301357E-1,4.089217E-2,0E0,0E0,6.268096E-2,0E0,0E0,1.9510286E-1,0E0,4.6498566E-3,0E0,0E0,0E0,0E0,0E0,0E0,0E0],"parents":[2147483647,0,0,1,1,2,2,3,3,5,5,6,6,8,8,9,9,11,11,13,13,15,15,16,16,17,17,20,20,23,23,25,25],"right_children":[2,4,6,8,-1,10,12,-1,14,16,-1,18,-1,20,-1,22,24,26,-1,-1,28,-1,-1,30,-1,32,-1,-1,-1,-1,-1,-1,-1],"split_conditions":[8.5E1,1E0,1E0,1E0,2.8415307E-1,2.2895802E1,1.8092462E2,-1.6718946E-1,1.5159212E1,1.8352267E-1,-1.6996449E-1,1E0,-1.2379096E-1,1.0034449E1,-1.0416251E-1,1.2996302E1,2.0507804E-1,1E0,-2.1501766E-3,2.5918491E-2,2.0049228E2,1.5564089E-2,2.117029E-1,1E0,-1.6002199E-1,1E0,5.1597327E-2,1.7729299E-1,3.995076E-2,4.395566E-2,-8.82629E-2,1.0006423E-3,1.8967438E-2],"split_indices":[10,15,26,26,0,6,7,0,5,9,0,35,0,5,0,8,9,43,0,0,7,0,0,24,0,36,0,0,0,0,0,0,0],"split_type":[0,0,0,0,0,0,0,0,0,0,0,0,0,0,0,0,0,0,0,0,0,0,0,0,0,0,0,0,0,0,0,0,0],"sum_hessian":[5.2194824E3,1.7333279E3,3.4861548E3,5.8965916E1,1.6743619E3,3.4739604E3,1.2194233E1,5.1870323E1,7.0955925E0,1.8313766E1,3.4556467E3,9.675102E0,2.5191312E0,5.7201595E0,1.3754326E0,2.8472407E0,1.5466526E1,8.054285E0,1.6208166E0,1.2832483E0,4.436911E0,1.3848848E0,1.4623557E0,2.1433342E0,1.3323192E1,4.515273E0,3.539012E0,3.3569336E0,1.0799776E0,1.1369748E0,1.0063593E0,3.1742384E0,1.3410349E0],"tree_param":{"num_deleted":"0","num_feature":"47","num_nodes":"33","size_leaf_vector":"1"}},{"base_weights":[5.8428623E-2,-5.2092326E-1,6.8408966E-1,-5.5129826E-1,3.645025E-2,-1.692083E-1,7.8012717E-1,5.452579E-1,-5.586679E-1,-1.6828506E-1,5.7603E-1,8.4445894E-1,-1.6869393E-1,-1.4003943E-1,2.6812544E-1,-5.6223994E-1,2.5387648E-1,-1.1993118E-2,7.203115E-1,-1.6778736E-1,8.8269943E-1,-1.6990569E-1,-3.994829E-1,1.7378128E-1,1.0869792E-1,1.6688605E-1,-1.3872331E-1,5.6874436E-1,2.857713E-1,8.1922203E-1,2.936397E-1,-1.6912273E-1,3.5239583E-1,5.613118E-2,1.6686378E-2,7.034854E-2,-3.3149976E-2,1.8022892E-1,1.700595E-2,2.9457825E-1,1.8744922E-1],"categories":[],"categories_nodes":[],"categories_segments":[],"categories_sizes":[],"default_left":[0,0,0,0,0,0,0,0,0,0,0,0,0,0,0,0,0,0,0,0,0,0,0,0,0,0,0,0,0,0,0,0,0,0,0,0,0,0,0,0,0],"id":12,"left_children":[1,3,5,7,9,-1,11,13,15,-1,17,19,-1,-1,-1,21,23,25,27,-1,29,-1,31,33,-1,35,-1,37,-1,39,-1,-1,-1,-1,-1,-1,-1,-1,-1,-1,-1],"loss_changes":[2.0393453E3,4.947705E1,3.2466736E2,2.2692139E1,4.928983E1,0E0,2.1742139E2,7.1184897E0,8.131287E0,0E0,6.8221893E0,1.2919678E2,0E0,0E0,0E0,1.6080322E0,4.7659695E-2,1.431282E0,1.7289352E0,0E0,1.34383545E1,0E0,1.9003147E1,4.149914E-3,0E0,2.6528656E-1,0E0,6.4657784E-1,0E0,4.404419E1,0E0,0E0,0E0,0E0,0E0,0E0,0E0,0E0,0E0,0E0,0E0],"parents":[2147483647,0,0,1,1,2,2,3,3,4,4,6,6,7,7,8,8,10,10,11,11,15,15,16,16,17,17,18,18,20,20,22,22,23,23,25,25,27,27,29,29],"right_children":[2,4,6,8,10,-1,12,14,16,-1,18,20,-1,-1,-1,22,24,26,28,-1,30,-1,32,34,-1,36,-1,38,-1,40,-1,-1,-1,-1,-1,-1,-1,-1,-1,-1,-1],"split_conditions":[1.0931612E2,1E0,8.5E1,4.7120456E2,3.0140063E3,-1.692083E-1,1E2,1.058908E2,1E0,-1.6828506E-1,1E0,8.4765495E1,-1.6869393E-1,-1.4003943E-1,2.6812544E-1,1E0,1E0,9.515087E1,7.090058E1,-1.6778736E-1,2.5329472E1,-1.6990569E-1,8.01339E1,1E0,1.0869792E-1,1E0,-1.3872331E-1,1.3007274E1,2.857713E-1,-5.0224314E0,2.936397E-1,-1.6912273E-1,3.5239583E-1,5.613118E-2,1.6686378E-2,7.034854E-2,-3.3149976E-2,1.8022892E-1,1.700595E-2,2.9457825E-1,1.8744922E-1],"split_indices":[1,44,10,0,0,0,4,1,19,0,18,4,0,0,0,16,23,1,4,0,5,0,4,34,0,35,0,8,0,5,0,0,0,0,0,0,0,0,0,0,0],"split_type":[0,0,0,0,0,0,0,0,0,0,0,0,0,0,0,0,0,0,0,0,0,0,0,0,0,0,0,0,0,0,0,0,0,0,0,0,0,0,0,0,0],"sum_hessian":[5.62414E3,2.920226E3,2.703914E3,2.7693184E3,1.5090767E2,1.928417E2,2.5110725E3,1.8000237E1,2.751318E3,7.159787E1,7.930981E1,2.396595E3,1.1447755E2,4.5236583E0,1.3476579E1,2.7395825E3,1.1735582E1,1.5806573E1,6.350323E1,6.319455E1,2.3334004E3,2.6696494E3,6.993311E1,8.247119E0,3.4884639E0,1.17640705E1,4.042502E0,4.0513676E1,2.2989553E1,1.4109432E3,9.2245715E2,6.390641E1,6.0266995E0,6.887111E0,1.3600075E0,9.582975E0,2.1810954E0,3.7966427E1,2.5472517E0,7.65864E2,6.4507916E2],"tree_param":{"num_deleted":"0","num_feature":"47","num_nodes":"41","size_leaf_vector":"1"}},{"base_weights":[3.9786965E-2,5.6330675E-1,-5.5698794E-1,-4.8524618E-1,8.4551156E-1,-1.7022684E-1,6.353702E-2,-5.335717E-1,4.7326297E-1,-1.6898237E-1,9.454877E-1,2.988264E-1,-1.5803605E-1,2.862523E-1,-5.4575676E-1,8.4044003E-1,8.165936E-2,2.8394505E-1,-1.018061E-1,-9.009657E-3,3.8094005E-1,6.995401E-1,-1.4326675E-1,-5.5943495E-1,1.4778104E-1,2.8112322E-1,4.677738E-1,-1.3017309E-1,2.3047876E-1,-1.7252679E-1,1.1705733E-1,4.2238435E-1,3.906471E-2,-8.956913E-2,2.8710553E-1,-1.6976196E-1,-1.24709465E-1,5.4294083E-2,1.0012118E-2,-1.1080645E-1,2.503439E-1,8.227588E-2,1.5581715E-2,2.2196263E-2,-1.03921674E-1,7.810049E-2,-1.9342387E-2,6.799603E-2,1.7562711E-1,-1.10115536E-1,1.21906206E-1],"categories":[],"categories_nodes":[],"categories_segments":[],"categories_sizes":[],"default_left":[0,0,0,0,0,0,0,0,0,0,0,0,0,0,0,0,0,0,0,0,0,0,0,0,0,0,0,0,0,0,0,0,0,0,0,0,0,0,0,0,0,0,0,0,0,0,0,0,0,0,0],"id":13,"left_children":[1,3,5,7,9,-1,11,13,15,-1,17,19,-1,21,23,25,27,-1,-1,29,31,33,-1,35,37,-1,39,-1,41,43,45,47,49,-1,-1,-1,-1,-1,-1,-1,-1,-1,-1,-1,-1,-1,-1,-1,-1,-1,-1],"loss_changes":[1.7281812E3,8.7232324E2,1.6773804E1,2.9225815E1,3.275863E2,0E0,6.220185E0,6.1094666E0,4.3244095E0,0E0,3.095581E0,8.084698E-1,0E0,3.2962606E0,5.6565094E0,1.2563896E-1,1.3193462E0,0E0,0E0,1.7857939E-1,3.400519E-1,1.9548166E0,0E0,2.9815674E-1,4.0127605E-2,0E0,1.911098E0,0E0,8.724159E-2,1.8632737E-1,1.4512157E-1,5.8028436E-1,7.193552E-1,0E0,0E0,0E0,0E0,0E0,0E0,0E0,0E0,0E0,0E0,0E0,0E0,0E0,0E0,0E0,0E0,0E0,0E0],"parents":[2147483647,0,0,1,1,2,2,3,3,4,4,6,6,7,7,8,8,10,10,11,11,13,13,14,14,15,15,16,16,19,19,20,20,21,21,23,23,24,24,26,26,28,28,29,29,30,30,31,31,32,32],"right_children":[2,4,6,8,10,-1,12,14,16,-1,18,20,-1,22,24,26,28,-1,-1,30,32,34,-1,36,38,-1,40,-1,42,44,46,48,50,-1,-1,-1,-1,-1,-1,-1,-1,-1,-1,-1,-1,-1,-1,-1,-1,-1,-1],"split_conditions":[1E2,9.5E1,1E0,1E0,1.1483661E1,-1.7022684E-1,9.005049E1,2.2895802E1,6.1158333E1,-1.6898237E-1,1E0,9.004605E1,-1.5803605E-1,6.074888E1,1E0,1.5006641E3,1E0,2.8394505E-1,-1.018061E-1,1.002216E2,1.281187E1,1.1483661E1,-1.4326675E-1,1E0,1E0,2.8112322E-1,3.8099435E-1,-1.3017309E-1,1E0,3.5103867E1,6.0052603E-1,5.53025E1,1E0,-8.956913E-2,2.8710553E-1,-1.6976196E-1,-1.24709465E-1,5.4294083E-2,1.0012118E-2,-1.1080645E-1,2.503439E-1,8.227588E-2,1.5581715E-2,2.2196263E-2,-1.03921674E-1,7.810049E-2,-1.9342387E-2,6.799603E-2,1.7562711E-1,-1.10115536E-1,1.21906206E-1],"split_indices":[2,10,18,44,8,0,1,6,4,0,20,10,0,11,19,0,3,0,0,2,8,8,0,16,23,0,9,0,36,14,9,6,23,0,0,0,0,0,0,0,0,0,0,0,0,0,0,0,0,0,0],"split_type":[0,0,0,0,0,0,0,0,0,0,0,0,0,0,0,0,0,0,0,0,0,0,0,0,0,0,0,0,0,0,0,0,0,0,0,0,0,0,0,0,0,0,0,0,0,0,0,0,0,0,0],"sum_hessian":[5.5295303E3,2.9455806E3,2.5839495E3,6.244968E2,2.3210837E3,2.5413E3,4.26494E1,5.9494464E2,2.9552223E1,1.5349646E2,2.1675874E3,3.0847925E1,1.1801475E1,8.383746E0,5.8656085E2,1.4660257E1,1.4891965E1,2.1661719E3,1.415388E0,6.683273E0,2.4164652E1,5.494745E0,2.8890016E0,5.754058E2,1.1155024E1,1.0438812E1,4.221445E0,2.906614E0,1.1985352E1,2.7490466E0,3.9342263E0,2.1341953E1,2.8226984E0,1.0940682E0,4.4006763E0,5.479266E2,2.7479305E1,8.195053E0,2.95997E0,1.2837145E0,2.9377308E0,9.194874E0,2.790478E0,1.3746469E0,1.3743998E0,1.9561763E0,1.9780499E0,1.0784816E1,1.0557138E1,1.3408027E0,1.4818958E0],"tree_param":{"num_deleted":"0","num_feature":"47","num_nodes":"51","size_leaf_vector":"1"}},{"base_weights":[-6.770356E-2,-5.6521595E-1,2.7213553E-1,-1.7006338E-1,-3.4518006E-1,-1.70496E-1,5.278539E-1,-4.789028E-1,1.7636846E-1,6.909034E-1,-1.72885E-1,4.1107524E-2,-1.5972961E-1,-1.7301303E-1,8.640558E-1,-1.6830634E-1,9.143389E-1,2.8431574E-1,-1.7057066E-1],"categories":[],"categories_nodes":[],"categories_segments":[],"categories_sizes":[],"default_left":[0,0,0,0,0,0,0,0,0,0,0,0,0,0,0,0,0,0,0],"id":14,"left_children":[1,3,5,-1,7,-1,9,11,-1,13,-1,-1,-1,-1,15,-1,17,-1,-1],"loss_changes":[8.8898834E2,5.845337E-1,6.717446E2,0E0,2.5965424E0,0E0,4.3172406E2,6.2616324E-1,0E0,4.5880396E2,0E0,0E0,0E0,0E0,1.3218347E2,0E0,8.841333E1,0E0,0E0],"parents":[2147483647,0,0,1,1,2,2,4,4,6,6,7,7,9,9,14,14,16,16],"right_children":[2,4,6,-1,8,-1,10,12,-1,14,-1,-1,-1,-1,16,-1,18,-1,-1],"split_conditions":[7.206923E1,7.13294E1,3E-1,-1.7006338E-1,1E0,-1.70496E-1,2.5329472E1,1.131E3,1.7636846E-1,-5.0224314E0,-1.72885E-1,4.1107524E-2,-1.5972961E-1,-1.7301303E-1,4.315754E1,-1.6830634E-1,7.021924E-1,2.8431574E-1,-1.7057066E-1],"split_indices":[4,4,9,0,27,0,5,0,0,5,0,0,0,0,7,0,9,0,0],"split_type":[0,0,0,0,0,0,0,0,0,0,0,0,0,0,0,0,0,0,0],"sum_hessian":[5.256069E3,2.1329062E3,3.1231624E3,2.1153528E3,1.7553629E1,7.2829443E2,2.394868E3,1.5779021E1,1.7746077E0,2.0870452E3,3.0782275E2,1.1369553E0,1.4642066E1,2.5054259E2,1.8365027E3,6.224537E1,1.7742572E3,1.735551E3,3.8706207E1],"tree_param":{"num_deleted":"0","num_feature":"47","num_nodes":"19","size_leaf_vector":"1"}},{"base_weights":[3.403727E-2,7.7954715E-1,-5.3876984E-1,7.841642E-1,-1.4511375E-1,-5.450754E-1,3.2498923E-1,2.3546003E-1,4.3659002E-1,-1.6478534E-1,2.1063773E-1,5.6808525E-1,3.301221E-2,1.7635056E-1,5.891143E-2,2.4350935E-1,1.4257255E-2,3.714232E-1,2.2891985E-1,-1.692475E-2,1.3614194E-1,8.179622E-2,1.3479577E-1,1.5483664E-1,4.5433264E-2,-8.635954E-2,2.4683414E-2,5.1206704E-2,1.4823243E-2,8.1485055E-2,-1.6353346E-2,-4.0002726E-2,3.0461643E-3],"categories":[],"categories_nodes":[],"categories_segments":[],"categories_sizes":[],"default_left":[0,0,0,0,0,0,0,0,0,0,0,0,0,0,0,0,0,0,0,0,0,0,0,0,0,0,0,0,0,0,0,0,0],"id":15,"left_children":[1,3,5,7,-1,9,11,-1,13,-1,15,17,19,-1,-1,21,-1,23,-1,25,27,-1,29,-1,-1,31,-1,-1,-1,-1,-1,-1,-1],"loss_changes":[2.003115E3,1.2266724E1,1.4624939E1,1.5332031E-1,0E0,8.493347E0,1.3902433E0,0E0,1.1529791E-1,0E0,7.052106E-2,1.2958074E-1,5.4218538E-2,0E0,0E0,2.8536916E-3,0E0,1.5453589E-1,0E0,6.0014743E-2,1.7513409E-3,0E0,1.3448218E-1,0E0,0E0,2.4055619E-2,0E0,0E0,0E0,0E0,0E0,0E0,0E0],"parents":[2147483647,0,0,1,1,2,2,3,3,5,5,6,6,8,8,10,10,11,11,12,12,15,15,17,17,19,19,20,20,22,22,25,25],"right_children":[2,4,6,8,-1,10,12,-1,14,-1,16,18,20,-1,-1,22,-1,24,-1,26,28,-1,30,-1,-1,32,-1,-1,-1,-1,-1,-1,-1],"split_conditions":[1.2007355E1,1E0,1E0,1E0,-1.4511375E-1,1E0,1.2061729E-1,2.3546003E-1,1.02235756E2,-1.6478534E-1,1E0,1.5159212E1,1E0,1.7635056E-1,5.891143E-2,1E0,1.4257255E-2,1E0,2.2891985E-1,1E0,1E0,8.179622E-2,1E0,1.5483664E-1,4.5433264E-2,1E0,2.4683414E-2,5.1206704E-2,1.4823243E-2,8.1485055E-2,-1.6353346E-2,-4.0002726E-2,3.0461643E-3],"split_indices":[8,21,26,26,0,19,9,0,2,0,36,5,33,0,0,33,0,17,0,36,43,0,43,0,0,35,0,0,0,0,0,0,0],"split_type":[0,0,0,0,0,0,0,0,0,0,0,0,0,0,0,0,0,0,0,0,0,0,0,0,0,0,0,0,0,0,0,0,0],"sum_hessian":[4.688786E3,2.037115E3,2.651671E3,2.0300746E3,7.0404077E0,2.6328198E3,1.8851051E1,2.0247239E3,5.3506694E0,2.618509E3,1.4310819E1,9.770564E0,9.080488E0,2.395403E0,2.9552665E0,1.1500323E1,2.8104956E0,6.3105364E0,3.4600275E0,6.6812267E0,2.3992612E0,7.8798375E0,3.620486E0,2.9945393E0,3.3159974E0,4.006459E0,2.6747675E0,1.0235376E0,1.3757237E0,1.8491917E0,1.7712944E0,2.4380288E0,1.5684304E0],"tree_param":{"num_deleted":"0","num_feature":"47","num_nodes":"33","size_leaf_vector":"1"}},{"base_weights":[-7.245373E-2,7.470689E-1,-5.4561967E-1,-4.216141E-1,2.3514788E-1,-5.478434E-1,-2.7857456E-2,-1.6151708E-1,2.2834107E-1,-2.773852E-1,-1.6478927E-1,8.2090646E-2,-1.1627836E-1,3.6881647E-1,-9.6083455E-2,4.2616534E-1,-4.5074686E-1,1.2327796E-1,2.1807581E-2,2.3920493E-2,4.2050943E-1,1.732555E-2,1.7989673E-1,-1.5428292E-2,-1.5387121E-1,4.306721E-2,1.0701215E-2,-3.8346834E-2,4.231038E-2,1.3985167E-1,3.583727E-2,-3.623389E-2,2.892715E-2],"categories":[],"categories_nodes":[],"categories_segments":[],"categories_sizes":[],"default_left":[0,0,0,0,0,0,0,0,0,0,0,0,0,0,0,0,0,0,0,0,0,0,0,0,0,0,0,0,0,0,0,0,0],"id":16,"left_children":[1,3,5,7,-1,9,11,-1,13,15,-1,17,-1,19,-1,21,23,25,27,-1,29,-1,-1,-1,-1,-1,-1,31,-1,-1,-1,-1,-1],"loss_changes":[1.6970631E3,6.914734E1,3.1791382E0,3.879859E0,0E0,9.3414307E-1,5.4278517E-1,0E0,7.532408E-1,2.240387E0,0E0,2.3927838E-2,0E0,7.146132E-2,0E0,2.1042591E-1,3.201065E-1,5.8119744E-3,4.5328792E-2,0E0,2.3028135E-2,0E0,0E0,0E0,0E0,0E0,0E0,6.1481144E-2,0E0,0E0,0E0,0E0,0E0],"parents":[2147483647,0,0,1,1,2,2,3,3,5,5,6,6,8,8,9,9,11,11,13,13,15,15,16,16,17,17,18,18,20,20,27,27],"right_children":[2,4,6,8,-1,10,12,-1,14,16,-1,18,-1,20,-1,22,24,26,28,-1,30,-1,-1,-1,-1,-1,-1,32,-1,-1,-1,-1,-1],"split_conditions":[8.5E1,1E0,1E0,1E0,2.3514788E-1,2.2895802E1,1.8092462E2,-1.6151708E-1,1.5159212E1,1.8352267E-1,-1.6478927E-1,1E0,-1.1627836E-1,1.0034449E1,-9.6083455E-2,1.2996302E1,-4.772377E0,1E0,1E0,2.3920493E-2,2.0049228E2,1.732555E-2,1.7989673E-1,-1.5428292E-2,-1.5387121E-1,4.306721E-2,1.0701215E-2,1E0,4.231038E-2,1.3985167E-1,3.583727E-2,-3.623389E-2,2.892715E-2],"split_indices":[10,15,26,26,0,6,7,0,5,9,0,43,0,5,0,8,13,33,34,0,7,0,0,0,0,0,0,36,0,0,0,0,0],"split_type":[0,0,0,0,0,0,0,0,0,0,0,0,0,0,0,0,0,0,0,0,0,0,0,0,0,0,0,0,0,0,0,0,0],"sum_hessian":[4.374415E3,1.6009658E3,2.7734492E3,4.8498802E1,1.552467E3,2.7615305E3,1.1918739E1,4.1257755E1,7.2410483E0,1.5793605E1,2.7457368E3,9.719828E0,2.198912E0,6.025851E0,1.2151977E0,2.8340378E0,1.2959567E1,5.153682E0,4.566145E0,1.2997513E0,4.7260995E0,1.3340383E0,1.4999995E0,1.9916811E0,1.0967886E1,3.6663465E0,1.4873357E0,3.4858012E0,1.080344E0,3.6274228E0,1.0986767E0,2.2272887E0,1.2585126E0],"tree_param":{"num_deleted":"0","num_feature":"47","num_nodes":"33","size_leaf_vector":"1"}},{"base_weights":[5.3100456E-2,-4.9924666E-1,5.6658924E-1,-5.32465E-1,3.4303404E-2,-1.6389292E-1,6.388489E-1,4.6367943E-1,-5.4011434E-1,-1.6280977E-1,4.5150045E-1,6.863567E-1,-1.632239E-1,-1.3057739E-1,2.2147004E-1,-5.444089E-1,2.0651452E-1,-1.3744372E-1,5.070828E-1,-1.6201958E-1,7.143106E-1,-1.647241E-1,-3.669165E-1,1.4365372E-1,8.677275E-2,7.288226E-1,3.1390643E-1,6.127441E-1,7.649828E-1,-1.6358396E-1,2.78923E-1,4.6116266E-2,1.4654427E-2,5.3281356E-2,2.2447348E-1,1.229845E-1,1.9316398E-2,2.2726493E-1,1.4584715E-2,2.3036239E-1,5.7235643E-2],"categories":[],"categories_nodes":[],"categories_segments":[],"categories_sizes":[],"default_left":[0,0,0,0,0,0,0,0,0,0,0,0,0,0,0,0,0,0,0,0,0,0,0,0,0,0,0,0,0,0,0,0,0,0,0,0,0,0,0,0,0],"id":17,"left_children":[1,3,5,7,9,-1,11,13,15,-1,17,19,-1,-1,-1,21,23,-1,25,-1,27,-1,29,31,-1,33,35,37,39,-1,-1,-1,-1,-1,-1,-1,-1,-1,-1,-1,-1],"loss_changes":[1.3752367E3,4.142169E1,2.0241785E2,1.70083E1,3.3430275E1,0E0,1.3300146E2,4.590367E0,7.1117554E0,0E0,4.305113E0,7.818555E1,0E0,0E0,0E0,1.5983887E0,2.7140915E-2,0E0,3.0433445E0,0E0,1.0952515E1,0E0,1.40782795E1,1.5508682E-3,0E0,2.3976898E-1,9.940152E-1,6.071295E1,2.3051758E0,0E0,0E0,0E0,0E0,0E0,0E0,0E0,0E0,0E0,0E0,0E0,0E0],"parents":[2147483647,0,0,1,1,2,2,3,3,4,4,6,6,7,7,8,8,10,10,11,11,15,15,16,16,18,18,20,20,22,22,23,23,25,25,26,26,27,27,28,28],"right_children":[2,4,6,8,10,-1,12,14,16,-1,18,20,-1,-1,-1,22,24,-1,26,-1,28,-1,30,32,-1,34,36,38,40,-1,-1,-1,-1,-1,-1,-1,-1,-1,-1,-1,-1],"split_conditions":[1.0931612E2,1E0,8.5E1,4.7120456E2,3.0140063E3,-1.6389292E-1,1E2,1.058908E2,1E0,-1.6280977E-1,1.8352267E-1,8.4765495E1,-1.632239E-1,-1.3057739E-1,2.2147004E-1,1E0,1E0,-1.3744372E-1,9.004605E1,-1.6201958E-1,1.2E2,-1.647241E-1,8.01339E1,1E0,8.677275E-2,1.0091444E2,6.0075966E1,6.513564E1,1E0,-1.6358396E-1,2.78923E-1,4.6116266E-2,1.4654427E-2,5.3281356E-2,2.2447348E-1,1.229845E-1,1.9316398E-2,2.2726493E-1,1.4584715E-2,2.3036239E-1,5.7235643E-2],"split_indices":[1,44,10,0,0,0,4,1,19,0,9,4,0,0,0,16,23,0,10,0,1,0,4,34,0,7,6,6,42,0,0,0,0,0,0,0,0,0,0,0,0],"split_type":[0,0,0,0,0,0,0,0,0,0,0,0,0,0,0,0,0,0,0,0,0,0,0,0,0,0,0,0,0,0,0,0,0,0,0,0,0,0,0,0,0],"sum_hessian":[4.846804E3,2.3350627E3,2.5117412E3,2.1982068E3,1.3685612E2,1.5274205E2,2.3589993E3,1.629711E1,2.1819097E3,5.730284E1,7.9553276E1,2.2683206E3,9.0678635E1,3.675982E0,1.2621128E1,2.1697004E3,1.220906E1,4.163983E0,7.53893E1,5.014146E1,2.218179E3,2.1120205E3,5.7679993E1,8.492498E0,3.7165613E0,3.380872E1,4.1580578E1,7.426723E2,1.4755067E3,5.1214592E1,6.465401E0,7.115492E0,1.3770066E0,1.4959853E0,3.2312733E1,2.9559788E1,1.2020787E1,5.907026E2,1.5196977E2,1.4677775E3,7.729214E0],"tree_param":{"num_deleted":"0","num_feature":"47","num_nodes":"41","size_leaf_vector":"1"}},{"base_weights":[3.4997117E-2,4.832058E-1,-5.378892E-1,-4.5931542E-1,7.0671934E-1,-1.6511588E-1,7.040378E-2,-5.111178E-1,3.7544385E-1,-1.636057E-1,7.8267497E-1,2.5304312E-1,-1.5072119E-1,-5.269545E-1,1.2237809E-1,-1.3126436E-1,4.7792065E-1,2.3504353E-1,-9.216136E-2,5.818395E-3,3.1411955E-1,2.2964779E-1,-5.405226E-1,6.993968E-2,2.0732383E-1,2.2470148E-1,1.6273014E-1,-1.5118186E-1,1.20040484E-1,3.4971187E-1,1.7875789E-2,1.7040758E-1,-1.3633753E-1,-1.6455436E-1,-1.120822E-1,4.722726E-2,-4.0482342E-2,8.727933E-2,7.764029E-3,3.3376947E-2,8.059166E-2,2.5739376E-2,-9.867566E-2,7.267004E-2,-1.427743E-2,2.2339874E-3,1.19691275E-1,-1.05680436E-1,9.987103E-2],"categories":[],"categories_nodes":[],"categories_segments":[],"categories_sizes":[],"default_left":[0,0,0,0,0,0,0,0,0,0,0,0,0,0,0,0,0,0,0,0,0,0,0,0,0,0,0,0,0,0,0,0,0,0,0,0,0,0,0,0,0,0,0,0,0,0,0,0,0],"id":18,"left_children":[1,3,5,7,9,-1,11,13,15,-1,17,19,-1,21,23,-1,25,-1,-1,27,29,31,33,35,37,-1,39,41,43,45,47,-1,-1,-1,-1,-1,-1,-1,-1,-1,-1,-1,-1,-1,-1,-1,-1,-1,-1],"loss_changes":[1.2066414E3,5.557426E2,1.5719543E1,2.2071991E1,2.0313647E2,0E0,4.5641403E0,4.848404E0,2.720293E0,0E0,2.0006104E0,4.937904E-1,0E0,4.901779E0,4.0918708E-2,0E0,2.2060575E0,0E0,0E0,1.5302786E-1,2.710755E-1,2.3185613E0,4.05365E-1,1.8617249E-1,5.6786522E-2,0E0,4.5754403E-2,1.8027934E-1,1.121274E-1,3.91999E-1,5.6911504E-1,0E0,0E0,0E0,0E0,0E0,0E0,0E0,0E0,0E0,0E0,0E0,0E0,0E0,0E0,0E0,0E0,0E0,0E0],"parents":[2147483647,0,0,1,1,2,2,3,3,4,4,6,6,7,7,8,8,10,10,11,11,13,13,14,14,16,16,19,19,20,20,21,21,22,22,23,23,24,24,26,26,27,27,28,28,29,29,30,30],"right_children":[2,4,6,8,10,-1,12,14,16,-1,18,20,-1,22,24,-1,26,-1,-1,28,30,32,34,36,38,-1,40,42,44,46,48,-1,-1,-1,-1,-1,-1,-1,-1,-1,-1,-1,-1,-1,-1,-1,-1,-1,-1],"split_conditions":[1E2,9.5E1,1E0,1E0,1.1483661E1,-1.6511588E-1,9.005049E1,1E0,2.543428E-1,-1.636057E-1,1E0,9.004605E1,-1.5072119E-1,2.2895802E1,1E0,-1.3126436E-1,3.0140063E3,2.3504353E-1,-9.216136E-2,1.002216E2,1.281187E1,6.074888E1,1E0,1E0,1E0,2.2470148E-1,1E0,1E0,6.0052603E-1,2.2895802E1,1E0,1.7040758E-1,-1.3633753E-1,-1.6455436E-1,-1.120822E-1,4.722726E-2,-4.0482342E-2,8.727933E-2,7.764029E-3,3.3376947E-2,8.059166E-2,2.5739376E-2,-9.867566E-2,7.267004E-2,-1.427743E-2,2.2339874E-3,1.19691275E-1,-1.05680436E-1,9.987103E-2],"split_indices":[2,10,18,44,8,0,1,19,9,0,20,10,0,6,33,0,0,0,0,2,8,11,16,23,26,0,35,23,9,6,23,0,0,0,0,0,0,0,0,0,0,0,0,0,0,0,0,0,0],"split_type":[0,0,0,0,0,0,0,0,0,0,0,0,0,0,0,0,0,0,0,0,0,0,0,0,0,0,0,0,0,0,0,0,0,0,0,0,0,0,0,0,0,0,0,0,0,0,0,0,0],"sum_hessian":[4.6972476E3,2.6354832E3,2.0617646E3,5.0498523E2,2.1304978E3,2.0203528E3,4.1411846E1,4.7584363E2,2.9141592E1,1.2149898E2,2.0089989E3,3.1823261E1,9.588583E0,4.644023E2,1.1441322E1,2.8960752E0,2.6245516E1,2.0077999E3,1.1989353E0,6.521369E0,2.5301893E1,7.900824E0,4.565015E2,8.201653E0,3.2396698E0,1.337005E1,1.2875465E1,2.6101265E0,3.9112425E0,2.2426916E1,2.874977E0,5.399679E0,2.501145E0,4.334612E2,2.3040283E1,5.9097905E0,2.2918622E0,1.8046734E0,1.4349964E0,1.0044259E1,2.8312066E0,1.3403248E0,1.2698019E0,2.0048227E0,1.9064198E0,2.966442E0,1.9460474E1,1.2675028E0,1.6074743E0],"tree_param":{"num_deleted":"0","num_feature":"47","num_nodes":"49","size_leaf_vector":"1"}},{"base_weights":[-5.944563E-2,-5.47862E-1,2.4020572E-1,-1.6493894E-1,-3.0631652E-1,-1.652732E-1,4.513299E-1,-4.4669688E-1,1.4330745E-1,5.7926375E-1,-1.6674225E-1,-1.5281731E-1,4.959807E-2,-1.6677803E-1,7.1022964E-1,-1.6360664E-1,7.4950385E-1,2.32618E-1,-1.7293409E-1],"categories":[],"categories_nodes":[],"categories_segments":[],"categories_sizes":[],"default_left":[0,0,0,0,0,0,0,0,0,0,0,0,0,0,0,0,0,0,0],"id":19,"left_children":[1,3,5,-1,7,-1,9,11,-1,13,-1,-1,-1,-1,15,-1,17,-1,-1],"loss_changes":[6.512253E2,6.2210083E-1,4.608779E2,0E0,1.9413334E0,0E0,2.8088184E2,6.1497927E-1,0E0,2.8770685E2,0E0,0E0,0E0,0E0,8.587048E1,0E0,5.815045E1,0E0,0E0],"parents":[2147483647,0,0,1,1,2,2,4,4,6,6,7,7,9,9,14,14,16,16],"right_children":[2,4,6,-1,8,-1,10,12,-1,14,-1,-1,-1,-1,16,-1,18,-1,-1],"split_conditions":[7.206923E1,7.13294E1,3E-1,-1.6493894E-1,1E0,-1.652732E-1,2.5329472E1,5.8E1,1.4330745E-1,-5.0224314E0,-1.6674225E-1,-1.5281731E-1,4.959807E-2,-1.6677803E-1,4.315754E1,-1.6360664E-1,1.21E2,2.32618E-1,-1.7293409E-1],"split_indices":[4,4,9,0,27,0,5,15,0,5,0,0,0,0,7,0,11,0,0],"split_type":[0,0,0,0,0,0,0,0,0,0,0,0,0,0,0,0,0,0,0],"sum_hessian":[4.44774E3,1.6908739E3,2.7568662E3,1.6761737E3,1.47001705E1,5.804009E2,2.1764653E3,1.2832661E1,1.8675095E0,1.9315328E3,2.449324E2,1.1792375E1,1.0402858E0,1.99454E2,1.7320789E3,5.2144592E1,1.6799342E3,1.6481686E3,3.176563E1],"tree_param":{"num_deleted":"0","num_feature":"47","num_nodes":"19","size_leaf_vector":"1"}},{"base_weights":[3.0573232E-2,6.866407E-1,-5.238404E-1,6.905506E-1,-1.374502E-1,-5.311872E-1,2.747653E-1,2.0739684E-1,3.5457137E-1,-1.6089182E-1,1.6911335E-1,4.7497806E-1,3.4846105E-2,1.5364563E-1,4.0123947E-2,5.9116025E-2,9.680167E-3,1.7930502E-1,2.754495E-1,-8.538642E-3,1.2005913E-1,1.4238217E-1,1.0861741E-1,-7.102984E-2,2.2908647E-2,4.6400465E-2,1.2108625E-2,8.991131E-2,-3.0768754E-2,-3.4053225E-2,3.5277177E-3],"categories":[],"categories_nodes":[],"categories_segments":[],"categories_sizes":[],"default_left":[0,0,0,0,0,0,0,0,0,0,0,0,0,0,0,0,0,0,0,0,0,0,0,0,0,0,0,0,0,0,0],"id":20,"left_children":[1,3,5,7,-1,9,11,-1,13,-1,15,17,19,-1,-1,-1,-1,-1,21,23,25,27,-1,29,-1,-1,-1,-1,-1,-1,-1],"loss_changes":[1.4013054E3,8.214722E0,1.2397095E1,2.1105957E-1,0E0,7.508911E0,9.2941284E-1,0E0,1.432721E-1,0E0,5.39636E-2,9.625602E-2,3.813321E-2,0E0,0E0,0E0,0E0,0E0,1.6589373E-2,4.5665383E-2,3.2807179E-3,1.8407708E-1,0E0,1.8522348E-2,0E0,0E0,0E0,0E0,0E0,0E0,0E0],"parents":[2147483647,0,0,1,1,2,2,3,3,5,5,6,6,8,8,10,10,11,11,12,12,18,18,19,19,20,20,21,21,23,23],"right_children":[2,4,6,8,-1,10,12,-1,14,-1,16,18,20,-1,-1,-1,-1,-1,22,24,26,28,-1,30,-1,-1,-1,-1,-1,-1,-1],"split_conditions":[1.2007355E1,1E0,1E0,1E0,-1.374502E-1,1E0,1.2061729E-1,2.0739684E-1,1.02235756E2,-1.6089182E-1,1E0,8.01339E1,1E0,1.5364563E-1,4.0123947E-2,5.9116025E-2,9.680167E-3,1.7930502E-1,2.0049228E2,1E0,1E0,1.014757E1,1.0861741E-1,1E0,2.2908647E-2,4.6400465E-2,1.2108625E-2,8.991131E-2,-3.0768754E-2,-3.4053225E-2,3.5277177E-3],"split_indices":[8,21,26,26,0,19,9,0,2,0,36,4,33,0,0,0,0,0,7,36,43,13,0,35,0,0,0,0,0,0,0],"split_type":[0,0,0,0,0,0,0,0,0,0,0,0,0,0,0,0,0,0,0,0,0,0,0,0,0,0,0,0,0,0,0],"sum_hessian":[3.8505796E3,1.7634987E3,2.087081E3,1.7578915E3,5.6070905E0,2.0683877E3,1.869327E1,1.7528058E3,5.085757E0,2.053611E3,1.4776691E1,9.655776E0,9.037494E0,2.1979973E0,2.8877594E0,1.1905888E1,2.8708034E0,4.743289E0,4.9124875E0,6.584769E0,2.4527254E0,2.9791799E0,1.9333076E0,3.8870702E0,2.6976984E0,1.05422E0,1.3985053E0,1.6779274E0,1.3012526E0,2.32366E0,1.5634103E0],"tree_param":{"num_deleted":"0","num_feature":"47","num_nodes":"31","size_leaf_vector":"1"}},{"base_weights":[-6.953787E-2,6.58848E-1,-5.318631E-1,-3.9022568E-1,2.07033E-1,-5.346211E-1,-1.9052858E-2,-1.5692118E-1,1.9353616E-1,-2.4758624E-1,-5.3632146E-1,7.597538E-2,-1.0915682E-1,3.063992E-1,-8.822541E-2,2.5527576E-1,-1.4801882E-1,-1.6128975E-1,-4.3011785E-1,1.1169816E-1,2.232103E-2,2.251741E-2,3.4512883E-1,-1.11349605E-1,2.122346E-1,-1.5604356E-1,2.433153E-1,1.2672178E-1,1.1377938E-2,-3.133666E-2,3.7418123E-2,1.1306398E-1,3.2837745E-2,2.9789186E-1,-1.12040095E-1,4.6124626E-2,1.1004337E-2,-3.290221E-2,2.764512E-2],"categories":[],"categories_nodes":[],"categories_segments":[],"categories_sizes":[],"default_left":[0,0,0,0,0,0,0,0,0,0,0,0,0,0,0,0,0,0,0,0,0,0,0,0,0,0,0,0,0,0,0,0,0,0,0,0,0,0,0],"id":21,"left_children":[1,3,5,7,-1,9,11,-1,13,15,17,19,-1,21,-1,23,-1,-1,25,27,29,-1,31,-1,-1,-1,33,35,-1,37,-1,-1,-1,-1,-1,-1,-1,-1,-1],"loss_changes":[1.1994913E3,4.562854E1,3.07135E0,3.2544823E0,0E0,9.2492676E-1,4.4352803E-1,0E0,5.451137E-1,1.9330716E0,6.8603516E-2,1.8163808E-2,0E0,3.8636744E-2,0E0,1.80892E0,0E0,0E0,2.0218163E0,2.0877942E-3,3.444547E-2,0E0,2.8395653E-3,0E0,0E0,0E0,2.390299E0,5.8967173E-3,0E0,5.311396E-2,0E0,0E0,0E0,0E0,0E0,0E0,0E0,0E0,0E0],"parents":[2147483647,0,0,1,1,2,2,3,3,5,5,6,6,8,8,9,9,10,10,11,11,13,13,15,15,18,18,19,19,20,20,22,22,26,26,27,27,29,29],"right_children":[2,4,6,8,-1,10,12,-1,14,16,18,20,-1,22,-1,24,-1,-1,26,28,30,-1,32,-1,-1,-1,34,36,-1,38,-1,-1,-1,-1,-1,-1,-1,-1,-1],"split_conditions":[8.5E1,1E0,1E0,1E0,2.07033E-1,2.2895802E1,1.8092462E2,-1.5692118E-1,1.5159212E1,2.0507804E-1,1E0,1E0,-1.0915682E-1,1.0034449E1,-8.822541E-2,4.786572E3,-1.4801882E-1,-1.6128975E-1,1.2886274E1,1E0,1E0,2.251741E-2,2.0049228E2,-1.11349605E-1,2.122346E-1,-1.5604356E-1,5.5043916E3,1E0,1.1377938E-2,1E0,3.7418123E-2,1.1306398E-1,3.2837745E-2,2.9789186E-1,-1.12040095E-1,4.6124626E-2,1.1004337E-2,-3.290221E-2,2.764512E-2],"split_indices":[10,15,26,26,0,6,7,0,5,9,16,43,0,5,0,0,0,0,8,33,34,0,7,0,0,0,0,34,0,33,0,0,0,0,0,0,0,0,0],"split_type":[0,0,0,0,0,0,0,0,0,0,0,0,0,0,0,0,0,0,0,0,0,0,0,0,0,0,0,0,0,0,0,0,0,0,0,0,0,0,0],"sum_hessian":[3.5599111E3,1.3820651E3,2.177846E3,3.9660965E1,1.342404E3,2.1661536E3,1.1692529E1,3.239329E1,7.2676754E0,1.3619715E1,2.1525337E3,9.7774935E0,1.9150351E0,6.203483E0,1.0641923E0,4.4590883E0,9.160627E0,2.122273E3,3.0260735E1,5.220142E0,4.5573516E0,1.3109388E0,4.8925443E0,1.9444273E0,2.514661E0,2.6893166E1,3.367568E0,3.7406096E0,1.4795322E0,3.4458342E0,1.1115177E0,3.7836037E0,1.1089407E0,1.2447424E0,2.1228256E0,2.33283E0,1.4077797E0,2.1767876E0,1.2690464E0],"tree_param":{"num_deleted":"0","num_feature":"47","num_nodes":"39","size_leaf_vector":"1"}},{"base_weights":[4.9634263E-2,-4.8118633E-1,4.9189422E-1,-5.1769286E-1,3.2914806E-2,-1.5980315E-1,5.504878E-1,4.0993997E-1,-5.2554876E-1,-1.5841395E-1,3.6552724E-1,5.8862895E-1,-1.5896958E-1,-1.2137151E-1,1.930178E-1,-5.307975E-1,1.6683887E-1,-1.3054572E-1,4.092687E-1,-1.5738332E-1,6.109316E-1,-1.6084042E-1,-3.3683723E-1,1.17188804E-1,2.3128034E-1,6.151081E-1,2.4857073E-1,5.52167E-1,7.044553E-1,-1.5935734E-1,2.3920713E-1,4.17886E-2,1.3116116E-2,8.004166E-2,2.0425858E-2,3.97299E-2,1.9024575E-1,9.702125E-2,1.5291528E-2,2.1205361E-1,1.1553724E-1,1.0426671E-1,2.1161032E-1],"categories":[],"categories_nodes":[],"categories_segments":[],"categories_sizes":[],"default_left":[0,0,0,0,0,0,0,0,0,0,0,0,0,0,0,0,0,0,0,0,0,0,0,0,0,0,0,0,0,0,0,0,0,0,0,0,0,0,0,0,0,0,0],"id":22,"left_children":[1,3,5,7,9,-1,11,13,15,-1,17,19,-1,-1,-1,21,23,-1,25,-1,27,-1,29,31,33,35,37,39,41,-1,-1,-1,-1,-1,-1,-1,-1,-1,-1,-1,-1,-1,-1],"loss_changes":[9.521755E2,3.461499E1,1.331159E2,1.2759125E1,2.3173504E1,0E0,8.657037E1,3.11569E0,6.29303E0,0E0,2.9067507E0,5.053253E1,0E0,0E0,0E0,1.5737305E0,1.6428292E-2,0E0,2.3077793E0,0E0,1.0510132E1,0E0,1.1020605E1,9.68343E-3,1.0205746E-2,2.0958138E-1,6.2607074E-1,3.131485E1,2.8686523E-3,0E0,0E0,0E0,0E0,0E0,0E0,0E0,0E0,0E0,0E0,0E0,0E0,0E0,0E0],"parents":[2147483647,0,0,1,1,2,2,3,3,4,4,6,6,7,7,8,8,10,10,11,11,15,15,16,16,18,18,20,20,22,22,23,23,24,24,25,25,26,26,27,27,28,28],"right_children":[2,4,6,8,10,-1,12,14,16,-1,18,20,-1,-1,-1,22,24,-1,26,-1,28,-1,30,32,34,36,38,40,42,-1,-1,-1,-1,-1,-1,-1,-1,-1,-1,-1,-1,-1,-1],"split_conditions":[1.0931612E2,1E0,8.5E1,4.7120456E2,3.0140063E3,-1.5980315E-1,1E2,1.058908E2,1E0,-1.5841395E-1,1.8352267E-1,8.4765495E1,-1.5896958E-1,-1.2137151E-1,1.930178E-1,1E0,1E0,-1.3054572E-1,9.004605E1,-1.5738332E-1,2.5329472E1,-1.6084042E-1,8.01339E1,1E0,1E0,1.0091444E2,6.0075966E1,-5.0224314E0,1.2007355E1,-1.5935734E-1,2.3920713E-1,4.17886E-2,1.3116116E-2,8.004166E-2,2.0425858E-2,3.97299E-2,1.9024575E-1,9.702125E-2,1.5291528E-2,2.1205361E-1,1.1553724E-1,1.0426671E-1,2.1161032E-1],"split_indices":[1,44,10,0,0,0,4,1,19,0,9,4,0,0,0,16,23,0,10,0,5,0,4,33,34,7,6,5,8,0,0,0,0,0,0,0,0,0,0,0,0,0,0],"split_type":[0,0,0,0,0,0,0,0,0,0,0,0,0,0,0,0,0,0,0,0,0,0,0,0,0,0,0,0,0,0,0,0,0,0,0,0,0,0,0,0,0,0,0],"sum_hessian":[4.0539326E3,1.8424508E3,2.2114817E3,1.7202856E3,1.2216514E2,1.1919201E2,2.0922896E3,1.401653E1,1.7062692E3,4.5254475E1,7.691066E1,2.0213834E3,7.090618E1,2.9591436E0,1.1057386E1,1.6936635E3,1.2605699E1,3.520488E0,7.3390175E1,3.925866E1,1.9821249E3,1.6465901E3,4.7073368E1,8.711952E0,3.8937461E0,3.0936121E1,4.2454052E1,1.221508E3,7.6061676E2,4.0640865E1,6.432502E0,6.0081277E0,2.7038245E0,2.6762629E0,1.2174834E0,1.4761982E0,2.9459923E1,3.0330725E1,1.2123328E1,6.325489E2,5.8895917E2,2.9133706E0,7.5770337E2],"tree_param":{"num_deleted":"0","num_feature":"47","num_nodes":"43","size_leaf_vector":"1"}},{"base_weights":[3.1186393E-2,4.3380752E-1,-5.2249676E-1,-4.358615E-1,6.257904E-1,-1.6131024E-1,7.6270916E-2,-4.9115783E-1,3.0284858E-1,-1.594448E-1,6.8920505E-1,-1.463513E-1,2.2180657E-1,-5.103601E-1,1.0208635E-1,-1.250599E-1,3.874352E-1,2.0697734E-1,-8.294968E-2,5.736088E-3,2.7506846E-1,1.8851629E-1,-5.253279E-1,5.7688225E-2,1.7328252E-1,6.293274E-1,1.3564484E-1,1.462445E-1,-1.7313269E-1,3.0595663E-1,1.2722669E-2,1.4251733E-1,-1.3029504E-1,-1.6062948E-1,-9.9290036E-2,3.9102532E-2,-3.5922535E-2,7.2946906E-2,5.86519E-3,8.412898E-2,2.0221645E-1,4.9048353E-2,6.2315385E-3,-8.739877E-3,7.685918E-2,-1.1369109E-1,5.8127236E-2,2.5364235E-3,1.0428851E-1,-1.0056783E-1,8.773235E-2],"categories":[],"categories_nodes":[],"categories_segments":[],"categories_sizes":[],"default_left":[0,0,0,0,0,0,0,0,0,0,0,0,0,0,0,0,0,0,0,0,0,0,0,0,0,0,0,0,0,0,0,0,0,0,0,0,0,0,0,0,0,0,0,0,0,0,0,0,0,0,0],"id":23,"left_children":[1,3,5,7,9,-1,11,13,15,-1,17,-1,19,21,23,-1,25,-1,-1,27,29,31,33,35,37,39,41,43,45,47,49,-1,-1,-1,-1,-1,-1,-1,-1,-1,-1,-1,-1,-1,-1,-1,-1,-1,-1,-1,-1],"loss_changes":[8.611296E2,3.736811E2,1.4846863E1,1.6693138E1,1.3484772E2,0E0,3.4865332E0,4.3490067E0,1.9163423E0,0E0,1.3979492E0,0E0,3.827802E-1,3.9227982E0,3.0020967E-2,0E0,1.5172033E0,0E0,0E0,2.1698017E-1,2.1305346E-1,1.7055367E0,5.260849E-1,1.3544658E-1,4.211694E-2,1.6107082E-2,4.192677E-2,1.00275196E-1,3.6137906E-1,2.9346848E-1,4.7405759E-1,0E0,0E0,0E0,0E0,0E0,0E0,0E0,0E0,0E0,0E0,0E0,0E0,0E0,0E0,0E0,0E0,0E0,0E0,0E0,0E0],"parents":[2147483647,0,0,1,1,2,2,3,3,4,4,6,6,7,7,8,8,10,10,12,12,13,13,14,14,16,16,19,19,20,20,21,21,22,22,23,23,24,24,25,25,26,26,27,27,28,28,29,29,30,30],"right_children":[2,4,6,8,10,-1,12,14,16,-1,18,-1,20,22,24,-1,26,-1,-1,28,30,32,34,36,38,40,42,44,46,48,50,-1,-1,-1,-1,-1,-1,-1,-1,-1,-1,-1,-1,-1,-1,-1,-1,-1,-1,-1,-1],"split_conditions":[1E2,9.5E1,1E0,1E0,1.1483661E1,-1.6131024E-1,5.2095703E3,1E0,2.543428E-1,-1.594448E-1,1E0,-1.463513E-1,9.209227E1,2.2895802E1,1E0,-1.250599E-1,3.0140063E3,2.0697734E-1,-8.294968E-2,3.5103867E1,1.281187E1,6.074888E1,1E0,1E0,1E0,8.5040596E1,1E0,6.0052603E-1,1.281187E1,2.2895802E1,1E0,1.4251733E-1,-1.3029504E-1,-1.6062948E-1,-9.9290036E-2,3.9102532E-2,-3.5922535E-2,7.2946906E-2,5.86519E-3,8.412898E-2,2.0221645E-1,4.9048353E-2,6.2315385E-3,-8.739877E-3,7.685918E-2,-1.1369109E-1,5.8127236E-2,2.5364235E-3,1.0428851E-1,-1.0056783E-1,8.773235E-2],"split_indices":[2,10,18,44,8,0,0,19,9,0,20,0,10,6,33,0,0,0,0,14,8,11,16,23,26,10,36,9,8,6,23,0,0,0,0,0,0,0,0,0,0,0,0,0,0,0,0,0,0,0,0],"split_type":[0,0,0,0,0,0,0,0,0,0,0,0,0,0,0,0,0,0,0,0,0,0,0,0,0,0,0,0,0,0,0,0,0,0,0,0,0,0,0,0,0,0,0,0,0,0,0,0,0,0,0],"sum_hessian":[3.8608577E3,2.2354932E3,1.6253644E3,4.040237E2,1.8314696E3,1.5852145E3,4.0149982E1,3.761984E2,2.7825302E1,9.476132E1,1.7367083E3,7.7517047E0,3.2398277E1,3.645386E2,1.1659794E1,2.513197E0,2.5312105E1,1.7357008E3,1.0073938E0,6.625981E0,2.5772297E1,7.400472E0,3.5713812E2,8.296405E0,3.3633888E0,1.2145064E1,1.3167041E1,3.8130634E0,2.8129177E0,2.2908815E1,2.863481E0,5.231106E0,2.1693666E0,3.3782205E2,1.9316084E1,6.074447E0,2.2219574E0,1.9124541E0,1.4509346E0,2.2060947E0,9.93897E0,1.025707E1,2.909971E0,1.7526246E0,2.0604386E0,1.7808664E0,1.0320513E0,2.9624255E0,1.994639E1,1.187669E0,1.675812E0],"tree_param":{"num_deleted":"0","num_feature":"47","num_nodes":"51","size_leaf_vector":"1"}},{"base_weights":[-5.2283872E-2,-5.347868E-1,2.1941276E-1,-1.611135E-1,-2.7048403E-1,-1.6133675E-1,4.021687E-1,-1.4711605E-1,2.7111787E-1,5.103642E-1,-1.623657E-1,-9.732986E-2,2.0488477E-1,-1.6233844E-1,6.188699E-1,6.5775025E-1,-1.6591802E-1,2.0393671E-1,-1.6478607E-1],"categories":[],"categories_nodes":[],"categories_segments":[],"categories_sizes":[],"default_left":[0,0,0,0,0,0,0,0,0,0,0,0,0,0,0,0,0,0,0],"id":24,"left_children":[1,3,5,-1,7,-1,9,-1,11,13,-1,-1,-1,-1,15,17,-1,-1,-1],"loss_changes":[4.811242E2,6.4382935E-1,3.2515015E2,0E0,1.7068624E0,0E0,1.9340454E2,0E0,1.3154925E0,1.9405899E2,0E0,0E0,0E0,0E0,7.051532E1,4.0026E1,0E0,0E0,0E0],"parents":[2147483647,0,0,1,1,2,2,4,4,6,6,8,8,9,9,14,14,15,15],"right_children":[2,4,6,-1,8,-1,10,-1,12,14,-1,-1,-1,-1,16,18,-1,-1,-1],"split_conditions":[7.206923E1,7.13294E1,3E-1,-1.611135E-1,3.1794864E-1,-1.6133675E-1,2.5329472E1,-1.4711605E-1,1.1483661E1,-5.0224314E0,-1.623657E-1,-9.732986E-2,2.0488477E-1,-1.6233844E-1,7.021924E-1,1.21E2,-1.6591802E-1,2.0393671E-1,-1.6478607E-1],"split_indices":[4,4,9,0,9,0,5,0,8,5,0,0,0,0,9,11,0,0,0],"split_type":[0,0,0,0,0,0,0,0,0,0,0,0,0,0,0,0,0,0,0],"sum_hessian":[3.6681633E3,1.3210887E3,2.3470747E3,1.3088737E3,1.2215054E1,4.5596378E2,1.8911108E3,8.754918E0,3.4601352E0,1.6969496E3,1.9416118E2,1.5013078E0,1.9588274E0,1.5835905E2,1.5385906E3,1.4896095E3,4.8981064E1,1.4633281E3,2.628144E1],"tree_param":{"num_deleted":"0","num_feature":"47","num_nodes":"19","size_leaf_vector":"1"}},{"base_weights":[2.7679387E-2,6.2826174E-1,-5.1142734E-1,6.318322E-1,-1.302587E-1,-5.2009E-1,2.3386022E-1,1.898289E-1,2.8730738E-1,-1.5791982E-1,1.3422623E-1,4.0155387E-1,3.6087412E-2,1.363197E-1,2.4422197E-2,1.5797831E-1,1.969378E-2,2.505717E-1,1.7212722E-1,-2.7072455E-3,1.0927402E-1,5.343395E-2,8.581585E-2,1.3358439E-3,8.158189E-3,3.5729384E-1,3.0662607E-2,-5.7047673E-2,2.0287316E-2,4.2839784E-2,1.0528323E-2,6.715026E-2,-2.5902623E-2,2.18578E-2,1.477115E-1,-2.84666E-2,3.8500966E-3],"categories":[],"categories_nodes":[],"categories_segments":[],"categories_sizes":[],"default_left":[0,0,0,0,0,0,0,0,0,0,0,0,0,0,0,0,0,0,0,0,0,0,0,0,0,0,0,0,0,0,0,0,0,0,0,0,0],"id":25,"left_children":[1,3,5,7,-1,9,11,-1,13,-1,15,17,19,-1,-1,21,23,25,-1,27,29,-1,31,-1,-1,33,-1,35,-1,-1,-1,-1,-1,-1,-1,-1,-1],"loss_changes":[1.0005269E3,5.819336E0,1.0635162E1,2.8546143E-1,0E0,6.7175293E0,6.289228E-1,0E0,1.6110414E-1,0E0,4.0887922E-2,1.2662232E-1,2.868979E-2,0E0,0E0,3.971964E-3,3.2705988E-4,7.933012E-2,0E0,3.256668E-2,3.664665E-3,0E0,1.338785E-1,0E0,0E0,1.12231374E-1,0E0,1.385805E-2,0E0,0E0,0E0,0E0,0E0,0E0,0E0,0E0,0E0],"parents":[2147483647,0,0,1,1,2,2,3,3,5,5,6,6,8,8,10,10,11,11,12,12,15,15,16,16,17,17,19,19,20,20,22,22,25,25,27,27],"right_children":[2,4,6,8,-1,10,12,-1,14,-1,16,18,20,-1,-1,22,24,26,-1,28,30,-1,32,-1,-1,34,-1,36,-1,-1,-1,-1,-1,-1,-1,-1,-1],"split_conditions":[1.2007355E1,1E0,1E0,1E0,-1.302587E-1,1E0,1.2061729E-1,1.898289E-1,1.02235756E2,-1.5791982E-1,1E0,1.5159212E1,1E0,1.363197E-1,2.4422197E-2,1E0,1E0,1E0,1.7212722E-1,1E0,1E0,5.343395E-2,1E0,1.3358439E-3,8.158189E-3,1.014757E1,3.0662607E-2,1E0,2.0287316E-2,4.2839784E-2,1.0528323E-2,6.715026E-2,-2.5902623E-2,2.18578E-2,1.477115E-1,-2.84666E-2,3.8500966E-3],"split_indices":[8,21,26,26,0,19,9,0,2,0,36,5,33,0,0,33,43,17,0,36,43,0,23,0,0,13,0,35,0,0,0,0,0,0,0,0,0],"split_type":[0,0,0,0,0,0,0,0,0,0,0,0,0,0,0,0,0,0,0,0,0,0,0,0,0,0,0,0,0,0,0,0,0,0,0,0,0],"sum_hessian":[3.0881711E3,1.4607183E3,1.6274528E3,1.4562299E3,4.4884553E0,1.6090526E3,1.840025E1,1.4514719E3,4.7578926E0,1.5938787E3,1.5173859E1,9.399735E0,9.000514E0,1.9602355E0,2.7976573E0,1.2253384E1,2.9204752E0,6.316624E0,3.0831108E0,6.5117717E0,2.488742E0,8.432356E0,3.8210278E0,1.4888027E0,1.4316726E0,2.8548212E0,3.461803E0,3.7800567E0,2.7317147E0,1.0769639E0,1.4117782E0,1.9541919E0,1.8668358E0,1.4148815E0,1.4399399E0,2.2200418E0,1.560015E0],"tree_param":{"num_deleted":"0","num_feature":"47","num_nodes":"37","size_leaf_vector":"1"}},{"base_weights":[-6.820386E-2,6.029945E-1,-5.211093E-1,-3.580331E-1,1.8941401E-1,-5.245854E-1,-1.05572585E-2,-1.5305075E-1,1.6952099E-1,-2.2666377E-1,-5.265182E-1,7.2000206E-2,-1.02358475E-1,2.1567734E-1,-1.21546965E-2,-1.4304346E-1,2.3855452E-1,-1.5843412E-1,-4.0173838E-1,1.0395603E-1,2.294634E-2,2.5123566E-1,1.16556045E-2,-1.0480233E-1,2.0067191E-1,-1.5214175E-1,2.3384964E-1,1.1924002E-1,9.161044E-3,-2.5991222E-2,3.4040686E-2,-1.8822752E-2,1.2812279E-1,2.990164E-1,-1.1470495E-1,4.3729987E-2,9.726446E-3,-3.3192974E-2,3.1821147E-2],"categories":[],"categories_nodes":[],"categories_segments":[],"categories_sizes":[],"default_left":[0,0,0,0,0,0,0,0,0,0,0,0,0,0,0,0,0,0,0,0,0,0,0,0,0,0,0,0,0,0,0,0,0,0,0,0,0,0,0],"id":26,"left_children":[1,3,5,7,-1,9,11,-1,13,15,17,19,-1,21,-1,-1,23,-1,25,27,29,31,-1,-1,-1,-1,33,35,-1,37,-1,-1,-1,-1,-1,-1,-1,-1,-1],"loss_changes":[8.6249426E2,3.1411346E1,3.000946E0,2.770001E0,0E0,8.494873E-1,3.6513275E-1,0E0,8.856748E-2,1.580193E0,1.20513916E-1,1.4558975E-2,0E0,3.368053E-2,0E0,0E0,1.5171309E0,0E0,1.8117814E0,3.3858418E-3,2.752322E-2,3.3428144E-1,0E0,0E0,0E0,0E0,2.3928378E0,6.4180717E-3,0E0,6.1084766E-2,0E0,0E0,0E0,0E0,0E0,0E0,0E0,0E0,0E0],"parents":[2147483647,0,0,1,1,2,2,3,3,5,5,6,6,8,8,9,9,10,10,11,11,13,13,16,16,18,18,19,19,20,20,21,21,26,26,27,27,29,29],"right_children":[2,4,6,8,-1,10,12,-1,14,16,18,20,-1,22,-1,-1,24,-1,26,28,30,32,-1,-1,-1,-1,34,36,-1,38,-1,-1,-1,-1,-1,-1,-1,-1,-1],"split_conditions":[8.5E1,1E0,1E0,1E0,1.8941401E-1,2.2895802E1,1.8092462E2,-1.5305075E-1,5.0032463E1,6.649436E1,1E0,1E0,-1.02358475E-1,2.0049228E2,-1.21546965E-2,-1.4304346E-1,5.398E3,-1.5843412E-1,1.2886274E1,1E0,1E0,1E0,1.16556045E-2,-1.0480233E-1,2.0067191E-1,-1.5214175E-1,2.0507804E-1,1E0,9.161044E-3,1E0,3.4040686E-2,-1.8822752E-2,1.2812279E-1,2.990164E-1,-1.1470495E-1,4.3729987E-2,9.726446E-3,-3.3192974E-2,3.1821147E-2],"split_indices":[10,15,26,26,0,6,7,0,14,4,16,43,0,7,0,0,0,0,8,36,34,17,0,0,0,0,9,34,0,36,0,0,0,0,0,0,0,0,0],"split_type":[0,0,0,0,0,0,0,0,0,0,0,0,0,0,0,0,0,0,0,0,0,0,0,0,0,0,0,0,0,0,0,0,0,0,0,0,0,0,0],"sum_hessian":[2.8352175E3,1.1421858E3,1.6930319E3,3.2435295E1,1.1097505E3,1.6815553E3,1.147652E1,2.5200832E1,7.2344623E0,1.1601236E1,1.6699541E3,9.809426E0,1.6670938E0,5.9090667E0,1.3253956E0,7.528333E0,4.072903E0,1.6456794E3,2.4274658E1,5.262187E0,4.5472393E0,4.569383E0,1.3396835E0,1.8009295E0,2.2719734E0,2.0995094E1,3.2795627E0,3.8389235E0,1.4232633E0,3.4143038E0,1.1329356E0,1.8712633E0,2.6981196E0,1.189455E0,2.090108E0,2.4204094E0,1.418514E0,2.1794524E0,1.2348514E0],"tree_param":{"num_deleted":"0","num_feature":"47","num_nodes":"39","size_leaf_vector":"1"}},{"base_weights":[4.722585E-2,-4.650671E-1,4.3778172E-1,-5.0558615E-1,3.1667903E-2,-1.5658787E-1,4.8713547E-1,3.7284833E-1,-5.1364523E-1,-1.5478876E-1,3.0019286E-1,5.19075E-1,-1.5553331E-1,-1.12196684E-1,1.7412828E-1,-5.201786E-1,1.3895251E-1,-1.2393748E-1,3.3570367E-1,-1.5346675E-1,5.3767437E-1,-5.263656E-1,-3.0579618E-1,9.813251E-2,1.9173872E-1,1.8651748E-1,2.3672998E-1,6.126201E-1,4.465824E-1,-1.5813813E-1,-9.282843E-2,-1.557399E-1,2.1469432E-1,3.460318E-2,1.1604553E-2,6.657771E-2,1.6632065E-2,8.66705E-2,1.7363539E-2,1.8728381E-1,-1.9009934E-1,-2.3910503E-1,1.5679199E-1],"categories":[],"categories_nodes":[],"categories_segments":[],"categories_sizes":[],"default_left":[0,0,0,0,0,0,0,0,0,0,0,0,0,0,0,0,0,0,0,0,0,0,0,0,0,0,0,0,0,0,0,0,0,0,0,0,0,0,0,0,0,0,0],"id":27,"left_children":[1,3,5,7,9,-1,11,13,15,-1,17,19,-1,-1,-1,21,23,-1,25,-1,27,29,31,33,35,-1,37,39,41,-1,-1,-1,-1,-1,-1,-1,-1,-1,-1,-1,-1,-1,-1],"loss_changes":[6.6637494E2,2.9015015E1,8.976611E1,9.622559E0,1.6272303E1,0E0,5.8011963E1,2.1844187E0,5.7023926E0,0E0,2.017568E0,3.3686737E1,0E0,0E0,0E0,1.5733948E0,1.1087567E-2,0E0,1.868639E0,0E0,1.1418213E1,4.663086E-2,8.884249E0,5.642079E-3,8.283377E-3,0E0,4.919803E-1,1.4009155E1,7.3882355E1,0E0,0E0,0E0,0E0,0E0,0E0,0E0,0E0,0E0,0E0,0E0,0E0,0E0,0E0],"parents":[2147483647,0,0,1,1,2,2,3,3,4,4,6,6,7,7,8,8,10,10,11,11,15,15,16,16,18,18,20,20,21,21,22,22,23,23,24,24,26,26,27,27,28,28],"right_children":[2,4,6,8,10,-1,12,14,16,-1,18,20,-1,-1,-1,22,24,-1,26,-1,28,30,32,34,36,-1,38,40,42,-1,-1,-1,-1,-1,-1,-1,-1,-1,-1,-1,-1,-1,-1],"split_conditions":[1.0931612E2,1E0,8.5E1,4.7120456E2,3.0140063E3,-1.5658787E-1,1E2,1.058908E2,1E0,-1.5478876E-1,1.8352267E-1,8.4765495E1,-1.5553331E-1,-1.12196684E-1,1.7412828E-1,1E0,1E0,-1.2393748E-1,3.8099435E-1,-1.5346675E-1,1.7391435E2,1.09092476E2,8.01339E1,1E0,1E0,1.8651748E-1,6.0075966E1,3.98E3,1.157465E2,-1.5813813E-1,-9.282843E-2,-1.557399E-1,2.1469432E-1,3.460318E-2,1.1604553E-2,6.657771E-2,1.6632065E-2,8.66705E-2,1.7363539E-2,1.8728381E-1,-1.9009934E-1,-2.3910503E-1,1.5679199E-1],"split_indices":[1,44,10,0,0,0,4,1,19,0,9,4,0,0,0,16,23,0,9,0,7,1,4,33,34,0,6,0,1,0,0,0,0,0,0,0,0,0,0,0,0,0,0],"split_type":[0,0,0,0,0,0,0,0,0,0,0,0,0,0,0,0,0,0,0,0,0,0,0,0,0,0,0,0,0,0,0,0,0,0,0,0,0,0,0,0,0,0,0],"sum_hessian":[3.3285415E3,1.4397836E3,1.8887579E3,1.3311804E3,1.0860319E2,9.190879E1,1.7968491E3,1.1690265E1,1.3194901E3,3.5428585E1,7.317461E1,1.7420029E3,5.4846188E1,2.3681977E0,9.322067E0,1.3066122E3,1.2878006E1,2.9658005E0,7.02088E1,3.041007E1,1.7115929E3,1.2685471E3,3.8065075E1,8.874412E0,4.003595E0,1.6691322E1,5.3517483E1,9.358765E2,7.757164E2,1.262685E3,5.862034E0,3.1895256E1,6.169817E0,6.1529293E0,2.721482E0,2.7633452E0,1.2402496E0,4.0955338E1,1.2562145E1,9.276968E2,8.179757E0,4.4161575E1,7.3155475E2],"tree_param":{"num_deleted":"0","num_feature":"47","num_nodes":"43","size_leaf_vector":"1"}},{"base_weights":[2.7919518E-2,4.0107056E-1,-5.0943565E-1,-4.1337654E-1,5.7455873E-1,-1.5845552E-1,8.1126094E-2,-4.7253424E-1,2.4616276E-1,-1.5613902E-1,6.30606E-1,-1.4027223E-1,1.9786733E-1,-4.9611002E-1,8.67569E-2,1.7666249E-1,8.0082834E-2,8.127397E-2,1.8938757E-1,8.4074914E-2,2.7351233E-1,1.5388246E-1,-5.124453E-1,1.1273277E-1,8.5516315E-4,-1.4252718E-1,2.126795E-1,-1.4585592E-1,3.557767E-1,1.1668148E-1,4.340109E-1,1.2249238E-1,-1.228543E-1,-1.5764512E-1,-8.529655E-2,4.44332E-2,6.2412927E-3,3.6210318E-3,-3.1188298E-3,1.4721113E-1,3.919411E-2,8.824448E-2,-1.5818395E-1,1.573202E-1,1.2495929E-2,-2.5442054E-2,8.1708E-2,1.9974612E-1,6.373719E-2],"categories":[],"categories_nodes":[],"categories_segments":[],"categories_sizes":[],"default_left":[0,0,0,0,0,0,0,0,0,0,0,0,0,0,0,0,0,0,0,0,0,0,0,0,0,0,0,0,0,0,0,0,0,0,0,0,0,0,0,0,0,0,0,0,0,0,0,0,0],"id":28,"left_children":[1,3,5,7,9,-1,11,13,15,-1,17,-1,19,21,23,-1,25,-1,-1,27,29,31,33,35,37,-1,39,41,43,45,47,-1,-1,-1,-1,-1,-1,-1,-1,-1,-1,-1,-1,-1,-1,-1,-1,-1,-1],"loss_changes":[6.219261E2,2.5887656E2,1.4118103E1,1.2680672E1,9.296707E1,0E0,2.6536329E0,3.9441605E0,1.4989537E0,0E0,1.8334961E-1,0E0,2.6683724E-1,3.0947418E0,2.8505474E-2,0E0,1.5331726E0,0E0,0E0,9.8204976E-1,4.4728887E-1,1.2755923E0,6.754303E-1,2.890218E-2,6.2816154E-4,0E0,3.098039E-1,1.6275661E0,3.5504997E-1,3.7983662E-1,3.4176457E-1,0E0,0E0,0E0,0E0,0E0,0E0,0E0,0E0,0E0,0E0,0E0,0E0,0E0,0E0,0E0,0E0,0E0,0E0],"parents":[2147483647,0,0,1,1,2,2,3,3,4,4,6,6,7,7,8,8,10,10,12,12,13,13,14,14,16,16,19,19,20,20,21,21,22,22,23,23,24,24,26,26,27,27,28,28,29,29,30,30],"right_children":[2,4,6,8,10,-1,12,14,16,-1,18,-1,20,22,24,-1,26,-1,-1,28,30,32,34,36,38,-1,40,42,44,46,48,-1,-1,-1,-1,-1,-1,-1,-1,-1,-1,-1,-1,-1,-1,-1,-1,-1,-1],"split_conditions":[1E2,9.5E1,1E0,1E0,1.1483661E1,-1.5845552E-1,5.2095703E3,1E0,1.5006641E3,-1.5613902E-1,2.5735159E1,-1.4027223E-1,1.002216E2,2.2895802E1,1E0,1.7666249E-1,3.8099435E-1,8.127397E-2,1.8938757E-1,6.0052603E-1,1E0,4.5358757E1,1E0,1E0,1E0,-1.4252718E-1,3.0140063E3,1E0,3.5103867E1,5.023706E1,6.0052603E-1,1.2249238E-1,-1.228543E-1,-1.5764512E-1,-8.529655E-2,4.44332E-2,6.2412927E-3,3.6210318E-3,-3.1188298E-3,1.4721113E-1,3.919411E-2,8.824448E-2,-1.5818395E-1,1.573202E-1,1.2495929E-2,-2.5442054E-2,8.1708E-2,1.9974612E-1,6.373719E-2],"split_indices":[2,10,18,44,8,0,0,19,0,0,14,0,2,6,36,0,9,0,0,9,23,4,16,35,26,0,0,33,14,6,9,0,0,0,0,0,0,0,0,0,0,0,0,0,0,0,0,0,0],"split_type":[0,0,0,0,0,0,0,0,0,0,0,0,0,0,0,0,0,0,0,0,0,0,0,0,0,0,0,0,0,0,0,0,0,0,0,0,0,0,0,0,0,0,0,0,0,0,0,0,0],"sum_hessian":[3.0996301E3,1.8294644E3,1.2701659E3,3.2102362E2,1.5084407E3,1.2311833E3,3.8982475E1,2.9485956E2,2.6164045E1,7.304473E1,1.435396E3,6.311644E0,3.267083E1,2.830415E2,1.1818073E1,7.709491E0,1.8454556E1,3.4855618E0,1.4319104E3,1.3889046E1,1.8781784E1,6.7324214E0,2.7630908E2,8.834315E0,2.983758E0,3.0599163E0,1.5394639E1,7.773666E0,6.11538E0,1.037291E1,8.4088745E0,4.8275933E0,1.9048277E0,2.6013733E2,1.6171736E1,5.937981E0,2.8963337E0,1.4578431E0,1.5259149E0,2.3723738E0,1.3022265E1,3.7158911E0,4.0577745E0,3.5436907E0,2.5716894E0,4.719673E0,5.653236E0,3.1293902E0,5.2794847E0],"tree_param":{"num_deleted":"0","num_feature":"47","num_nodes":"49","size_leaf_vector":"1"}},{"base_weights":[-4.5670103E-2,-5.24939E-1,2.0470844E-1,-1.5824832E-1,-2.4249315E-1,-1.5837108E-1,3.67464E-1,-1.4021929E-1,2.4503648E-1,5.424259E-1,-1.2451041E-1,-8.798441E-2,1.721243E-1,-1.5790904E-1,6.100176E-1,-2.4809165E-1,1.8665276E-1,6.339562E-1,-1.5346293E-1,5.9004617E-1,-3.0236885E-1,-1.65901E-1,1.9515677E-1,6.0444556E-2,1.8128762E-1,-1.6485503E-1,-5.984924E-2],"categories":[],"categories_nodes":[],"categories_segments":[],"categories_sizes":[],"default_left":[0,0,0,0,0,0,0,0,0,0,0,0,0,0,0,0,0,0,0,0,0,0,0,0,0,0,0],"id":29,"left_children":[1,3,5,-1,7,-1,9,-1,11,13,15,-1,-1,-1,17,19,-1,21,-1,23,25,-1,-1,-1,-1,-1,-1],"loss_changes":[3.5711707E2,6.0913086E-1,2.3329251E2,0E0,1.3214334E0,0E0,1.3780379E2,0E0,8.992251E-1,8.5606445E1,3.896517E1,0E0,0E0,0E0,3.0147919E1,1.6627417E1,0E0,2.1754486E1,0E0,1.8548965E-3,8.541086E0,0E0,0E0,0E0,0E0,0E0,0E0],"parents":[2147483647,0,0,1,1,2,2,4,4,6,6,8,8,9,9,10,10,14,14,15,15,17,17,19,19,20,20],"right_children":[2,4,6,-1,8,-1,10,-1,12,14,16,-1,-1,-1,18,20,-1,22,-1,24,26,-1,-1,-1,-1,-1,-1],"split_conditions":[7.206923E1,7.13294E1,3E-1,-1.5824832E-1,3.1794864E-1,-1.5837108E-1,1.2E2,-1.4021929E-1,1.1483661E1,2.9011768E1,1E2,-8.798441E-2,1.721243E-1,-1.5790904E-1,2.5329472E1,8.4765495E1,1.8665276E-1,1E0,-1.5346293E-1,6.7554436E1,5.176091E0,-1.65901E-1,1.9515677E-1,6.0444556E-2,1.8128762E-1,-1.6485503E-1,-5.984924E-2],"split_indices":[4,4,9,0,9,0,1,0,8,6,4,0,0,0,5,4,0,21,0,6,11,0,0,0,0,0,0],"split_type":[0,0,0,0,0,0,0,0,0,0,0,0,0,0,0,0,0,0,0,0,0,0,0,0,0,0,0],"sum_hessian":[2.9741135E3,1.02019086E3,1.9539226E3,1.0101837E3,1.0007116E1,3.5476675E2,1.5991559E3,6.876282E0,3.1308343E0,1.1795629E3,4.1959296E2,1.2278364E0,1.9029979E0,6.975643E1,1.1098065E3,3.605821E2,5.901085E1,1.0870394E3,2.276704E1,2.1330446E1,3.3925165E2,1.4517206E1,1.0725222E3,1.2899313E0,2.0040514E1,9.843069E1,2.4082097E2],"tree_param":{"num_deleted":"0","num_feature":"47","num_nodes":"27","size_leaf_vector":"1"}},{"base_weights":[2.5059916E-2,5.8920443E-1,-5.004821E-1,5.9256274E-1,-1.2245275E-1,-5.1081735E-1,2.0358755E-1,1.7812309E-1,2.290339E-1,-5.187132E-1,1.1031731E-1,3.4877032E-1,3.7527453E-2,1.1421315E-2,1.2723865E-1,-1.5580612E-1,-3.0264422E-1,1.3055132E-1,1.3256854E-2,2.1429467E-1,1.5419792E-1,2.5664817E-3,1.0085885E-1,-1.3421825E-1,5.402794E-2,4.3748036E-2,7.356492E-2,-2.0164307E-4,6.6264067E-3,9.730702E-2,9.984583E-2,-4.4941586E-2,1.8346468E-2,4.042224E-2,9.006045E-3,5.782372E-2,-2.3724848E-2,5.7564925E-2,-2.7951172E-2,-2.3174563E-2,3.598616E-3],"categories":[],"categories_nodes":[],"categories_segments":[],"categories_sizes":[],"default_left":[0,0,0,0,0,0,0,0,0,0,0,0,0,0,0,0,0,0,0,0,0,0,0,0,0,0,0,0,0,0,0,0,0,0,0,0,0,0,0,0,0],"id":30,"left_children":[1,3,5,7,-1,9,11,-1,13,15,17,19,21,-1,-1,-1,23,25,27,29,-1,31,33,-1,-1,-1,35,-1,-1,-1,37,39,-1,-1,-1,-1,-1,-1,-1,-1,-1],"loss_changes":[7.2192834E2,4.175415E0,9.277405E0,3.6660767E-1,0E0,6.1518555E0,4.438442E-1,0E0,1.8574059E-1,1.2664795E-2,3.0523658E-2,1.11848116E-1,2.179671E-2,0E0,0E0,0E0,5.015284E-1,1.0041445E-3,5.002613E-4,5.8602214E-2,0E0,2.3469124E-2,4.396286E-3,0E0,0E0,0E0,1.03786595E-1,0E0,0E0,0E0,1.0644905E-1,9.548737E-3,0E0,0E0,0E0,0E0,0E0,0E0,0E0,0E0,0E0],"parents":[2147483647,0,0,1,1,2,2,3,3,5,5,6,6,8,8,9,9,10,10,11,11,12,12,16,16,17,17,18,18,19,19,21,21,22,22,26,26,30,30,31,31],"right_children":[2,4,6,8,-1,10,12,-1,14,16,18,20,22,-1,-1,-1,24,26,28,30,-1,32,34,-1,-1,-1,36,-1,-1,-1,38,40,-1,-1,-1,-1,-1,-1,-1,-1,-1],"split_conditions":[1.2007355E1,1E0,1E0,1E0,-1.2245275E-1,1E0,1.2061729E-1,1.7812309E-1,3.0140063E3,1E0,1E0,1.5159212E1,1E0,1.1421315E-2,1.2723865E-1,-1.5580612E-1,1E0,1E0,1E0,8.01339E1,1.5419792E-1,1E0,1E0,-1.3421825E-1,5.402794E-2,4.3748036E-2,1E0,-2.0164307E-4,6.6264067E-3,9.730702E-2,1.014757E1,1E0,1.8346468E-2,4.042224E-2,9.006045E-3,5.782372E-2,-2.3724848E-2,5.7564925E-2,-2.7951172E-2,-2.3174563E-2,3.598616E-3],"split_indices":[8,21,26,26,0,19,9,0,0,16,36,5,33,0,0,0,33,33,43,4,0,36,43,0,0,0,23,0,0,0,13,35,0,0,0,0,0,0,0,0,0],"split_type":[0,0,0,0,0,0,0,0,0,0,0,0,0,0,0,0,0,0,0,0,0,0,0,0,0,0,0,0,0,0,0,0,0,0,0,0,0,0,0,0,0],"sum_hessian":[2.4329905E3,1.1733422E3,1.2596484E3,1.1698091E3,3.5330596E0,1.2416957E3,1.7952732E1,1.1653901E3,4.4189467E0,1.2262722E3,1.5423433E1,8.991442E0,8.961289E0,2.8370883E0,1.5818586E0,1.2212479E3,5.0243096E0,1.2477268E1,2.9461646E0,6.223283E0,2.768159E0,6.4443345E0,2.5169554E0,3.9216177E0,1.1026919E0,8.610272E0,3.8669965E0,1.5016189E0,1.4445456E0,2.237485E0,3.985798E0,3.6873055E0,2.7570288E0,1.0923901E0,1.4245653E0,2.0240343E0,1.8429623E0,2.7028515E0,1.2829463E0,2.1248777E0,1.5624278E0],"tree_param":{"num_deleted":"0","num_feature":"47","num_nodes":"41","size_leaf_vector":"1"}},{"base_weights":[-6.7703955E-2,5.6549734E-1,-5.124271E-1,-3.259171E-1,1.7777252E-1,-5.168662E-1,-3.2942048E-3,-1.4965336E-1,1.4860108E-1,-2.0914994E-1,-5.1903677E-1,-9.7843E-2,7.090428E-2,1.8991858E-1,-1.1909823E-2,-1.3740262E-1,2.2357997E-1,-1.5628636E-1,-3.7545773E-1,1.0141246E-1,2.3508318E-2,2.1918344E-1,1.1616191E-2,-9.52699E-2,1.7357355E-1,2.1291834E-1,-1.4997473E-1,1.1662276E-1,8.757462E-3,-2.1661378E-2,3.144947E-2,-1.5208822E-2,1.0942964E-1,-1.02087945E-1,2.3735358E-1,4.3138918E-2,9.02149E-3,-2.9975558E-2,2.893146E-2],"categories":[],"categories_nodes":[],"categories_segments":[],"categories_sizes":[],"default_left":[0,0,0,0,0,0,0,0,0,0,0,0,0,0,0,0,0,0,0,0,0,0,0,0,0,0,0,0,0,0,0,0,0,0,0,0,0,0,0],"id":31,"left_children":[1,3,5,7,-1,9,11,-1,13,15,17,-1,19,21,-1,-1,23,-1,25,27,29,31,-1,-1,-1,33,-1,35,-1,37,-1,-1,-1,-1,-1,-1,-1,-1,-1],"loss_changes":[6.262363E2,2.2340576E1,2.9506226E0,2.3467252E0,0E0,7.563782E-1,3.177074E-1,0E0,7.108493E-2,1.2595673E0,1.5829468E-1,0E0,1.3262339E-2,2.1915212E-2,0E0,0E0,1.0665252E0,0E0,1.609107E0,3.4957677E-3,2.261849E-2,2.3623842E-1,0E0,0E0,0E0,1.6397098E0,0E0,7.0938095E-3,0E0,5.020891E-2,0E0,0E0,0E0,0E0,0E0,0E0,0E0,0E0,0E0],"parents":[2147483647,0,0,1,1,2,2,3,3,5,5,6,6,8,8,9,9,10,10,12,12,13,13,16,16,18,18,19,19,20,20,21,21,25,25,27,27,29,29],"right_children":[2,4,6,8,-1,10,12,-1,14,16,18,-1,20,22,-1,-1,24,-1,26,28,30,32,-1,-1,-1,34,-1,36,-1,38,-1,-1,-1,-1,-1,-1,-1,-1,-1],"split_conditions":[8.5E1,1E0,1E0,1E0,1.7777252E-1,2.2895802E1,1.2061729E-1,-1.4965336E-1,5.0032463E1,6.649436E1,1E0,-9.7843E-2,1E0,2.0049228E2,-1.1909823E-2,-1.3740262E-1,5.398E3,-1.5628636E-1,2.0507804E-1,1E0,1E0,1E0,1.1616191E-2,-9.52699E-2,1.7357355E-1,1.1391522E1,-1.4997473E-1,1E0,8.757462E-3,1E0,3.144947E-2,-1.5208822E-2,1.0942964E-1,-1.02087945E-1,2.3735358E-1,4.3138918E-2,9.02149E-3,-2.9975558E-2,2.893146E-2],"split_indices":[10,15,26,26,0,6,9,0,14,4,16,0,43,7,0,0,0,0,9,34,34,17,0,0,0,8,0,36,0,36,0,0,0,0,0,0,0,0,0],"split_type":[0,0,0,0,0,0,0,0,0,0,0,0,0,0,0,0,0,0,0,0,0,0,0,0,0,0,0,0,0,0,0,0,0,0,0,0,0,0,0],"sum_hessian":[2.2218271E3,9.165552E2,1.3052721E3,2.6695272E1,8.8985986E2,1.2939747E3,1.1297369E1,1.952761E1,7.1676617E0,9.745477E0,1.2842292E3,1.4766562E0,9.820713E0,5.8708644E0,1.296797E0,6.1501617E0,3.5953155E0,1.2647089E3,1.9520336E1,5.281434E0,4.539279E0,4.5420837E0,1.3287808E0,1.4660174E0,2.1292982E0,3.2840774E0,1.623626E1,3.854781E0,1.4266533E0,3.3899977E0,1.1492813E0,1.8199799E0,2.7221038E0,1.888707E0,1.3953704E0,2.4303453E0,1.4244356E0,2.1315203E0,1.2584773E0],"tree_param":{"num_deleted":"0","num_feature":"47","num_nodes":"39","size_leaf_vector":"1"}},{"base_weights":[4.425697E-2,-4.529579E-1,3.9217967E-1,-4.9905044E-1,2.8586498E-2,-1.5403585E-1,4.3552825E-1,-5.0721294E-1,1.1636164E-1,-1.5169452E-1,2.4566303E-1,4.631126E-1,-1.526282E-1,3.1556758E-1,-5.128394E-1,8.1554465E-2,1.6211632E-1,-1.1755298E-1,2.7487475E-1,-1.502994E-1,4.7994617E-1,-9.049712E-2,1.5084831E-1,-5.195707E-1,-2.9022664E-1,9.470059E-2,3.4141857E-2,5.533883E-2,1.5563828E-2,1.8806717E-1,1.7213646E-1,5.668525E-1,3.799993E-1,-3.4682415E-2,-1.5596773E-1,-1.526285E-1,1.8565856E-1,3.264401E-2,6.681413E-3,-8.061269E-5,1.7204287E-2,6.90241E-2,1.3717492E-2,1.7367113E-1,-1.7638008E-1,-2.1265703E-1,1.3524087E-1],"categories":[],"categories_nodes":[],"categories_segments":[],"categories_sizes":[],"default_left":[0,0,0,0,0,0,0,0,0,0,0,0,0,0,0,0,0,0,0,0,0,0,0,0,0,0,0,0,0,0,0,0,0,0,0,0,0,0,0,0,0,0,0,0,0,0,0],"id":32,"left_children":[1,3,5,7,9,-1,11,13,15,-1,17,19,-1,21,23,25,27,-1,29,-1,31,-1,-1,33,35,37,39,-1,-1,41,-1,43,45,-1,-1,-1,-1,-1,-1,-1,-1,-1,-1,-1,-1,-1,-1],"loss_changes":[4.6689215E2,2.4676224E1,6.255612E1,5.1532135E0,1.1490357E1,0E0,3.971814E1,4.795929E0,9.215027E-3,0E0,1.4180841E0,2.415097E1,0E0,1.0090547E0,1.3395996E0,3.008075E-3,2.9305965E-3,0E0,1.6531591E0,0E0,1.2366425E1,0E0,0E0,6.518555E-2,6.564432E0,5.0139055E-3,2.9999046E-3,0E0,0E0,3.1290746E-1,0E0,1.1094681E1,5.2493103E1,0E0,0E0,0E0,0E0,0E0,0E0,0E0,0E0,0E0,0E0,0E0,0E0,0E0,0E0],"parents":[2147483647,0,0,1,1,2,2,3,3,4,4,6,6,7,7,8,8,10,10,11,11,13,13,14,14,15,15,16,16,18,18,20,20,23,23,24,24,25,25,26,26,29,29,31,31,32,32],"right_children":[2,4,6,8,10,-1,12,14,16,-1,18,20,-1,22,24,26,28,-1,30,-1,32,-1,-1,34,36,38,40,-1,-1,42,-1,44,46,-1,-1,-1,-1,-1,-1,-1,-1,-1,-1,-1,-1,-1,-1],"split_conditions":[1.09092476E2,1E0,8.5E1,1E0,3.0140063E3,-1.5403585E-1,1E2,4.3186487E2,1E0,-1.5169452E-1,1.8352267E-1,8.4765495E1,-1.526282E-1,1.058908E2,1E0,1E0,1E0,-1.1755298E-1,6.271149E1,-1.502994E-1,1.7391435E2,-9.049712E-2,1.5084831E-1,4.9099692E2,8.01339E1,1E0,1E0,5.533883E-2,1.5563828E-2,6.0075966E1,1.7213646E-1,3.98E3,1.157465E2,-3.4682415E-2,-1.5596773E-1,-1.526285E-1,1.8565856E-1,3.264401E-2,6.681413E-3,-8.061269E-5,1.7204287E-2,6.90241E-2,1.3717492E-2,1.7367113E-1,-1.7638008E-1,-2.1265703E-1,1.3524087E-1],"split_indices":[1,44,10,19,0,0,4,0,23,0,9,4,0,1,16,33,34,0,4,0,7,0,0,0,4,34,25,0,0,6,0,0,1,0,0,0,0,0,0,0,0,0,0,0,0,0,0],"split_type":[0,0,0,0,0,0,0,0,0,0,0,0,0,0,0,0,0,0,0,0,0,0,0,0,0,0,0,0,0,0,0,0,0,0,0,0,0,0,0,0,0,0,0,0,0,0,0],"sum_hessian":[2.696891E3,1.1101205E3,1.5867705E3,1.0131111E3,9.700944E1,7.198682E1,1.5147837E3,1.00002313E3,1.3087941E1,2.7644863E1,6.936458E1,1.4722852E3,4.249851E1,6.417906E0,9.936052E2,9.013493E0,4.074449E0,2.4952495E0,6.686932E1,2.4771673E1,1.4475135E3,1.3516986E0,5.0662074E0,9.6314777E2,3.0457457E1,6.2759757E0,2.7375166E0,2.8278723E0,1.2465765E0,5.3082714E1,1.378661E1,7.7176917E2,6.757444E2,1.0532014E0,9.620946E2,2.4909777E1,5.547679E0,4.832104E0,1.4438717E0,1.5006719E0,1.2368448E0,4.050965E1,1.2573064E1,7.6429175E2,7.477384E0,4.070769E1,6.350367E2],"tree_param":{"num_deleted":"0","num_feature":"47","num_nodes":"47","size_leaf_vector":"1"}},{"base_weights":[2.5319267E-2,3.7807697E-1,-4.9749303E-1,-3.9071837E-1,5.40385E-1,-1.5630078E-1,8.6931586E-2,-8.882668E-2,-1.5526009E-1,-1.5340587E-1,5.917828E-1,-1.3408798E-1,1.8042724E-1,-1.5261061E-1,2.4328426E-1,6.940918E-2,1.777646E-1,8.553627E-2,2.5043902E-1,4.902301E-2,2.2930916E-1,-1.2618269E-1,2.8870124E-1,-3.4443891E-4,2.95581E-1,-1.4063574E-1,3.5584126E-2,7.770567E-2,-1.4946996E-1,-9.729709E-4,1.6927108E-1,-5.915048E-3,6.667356E-3,1.0125901E-1,-1.4787469E-2],"categories":[],"categories_nodes":[],"categories_segments":[],"categories_sizes":[],"default_left":[0,0,0,0,0,0,0,0,0,0,0,0,0,0,0,0,0,0,0,0,0,0,0,0,0,0,0,0,0,0,0,0,0,0,0],"id":33,"left_children":[1,3,5,7,9,-1,11,13,-1,-1,15,-1,17,-1,19,-1,-1,21,23,25,-1,27,29,31,33,-1,-1,-1,-1,-1,-1,-1,-1,-1,-1],"loss_changes":[4.5162057E2,1.8266156E2,1.3600876E1,9.734207E0,6.558716E1,0E0,2.0279098E0,1.0829621E1,0E0,0E0,1.8084717E-1,0E0,2.0385492E-1,0E0,4.3702965E0,0E0,0E0,7.210125E-1,2.1512985E-1,1.2370934E0,0E0,1.3457185E0,6.796199E-1,2.1417046E-3,2.4952376E-1,0E0,0E0,0E0,0E0,0E0,0E0,0E0,0E0,0E0,0E0],"parents":[2147483647,0,0,1,1,2,2,3,3,4,4,6,6,7,7,10,10,12,12,14,14,17,17,18,18,19,19,21,21,22,22,23,23,24,24],"right_children":[2,4,6,8,10,-1,12,14,-1,-1,16,-1,18,-1,20,-1,-1,22,24,26,-1,28,30,32,34,-1,-1,-1,-1,-1,-1,-1,-1,-1,-1],"split_conditions":[1E2,9.5E1,1E0,1E0,1.1483661E1,-1.5630078E-1,5.2095703E3,1.2007355E1,-1.5526009E-1,-1.5340587E-1,2.5735159E1,-1.3408798E-1,6.0052603E-1,-1.5261061E-1,3.9715123E-1,6.940918E-2,1.777646E-1,1.002216E2,1.0091444E2,2.543428E-1,2.2930916E-1,1E0,1E0,1.281187E1,1E0,-1.4063574E-1,3.5584126E-2,7.770567E-2,-1.4946996E-1,-9.729709E-4,1.6927108E-1,-5.915048E-3,6.667356E-3,1.0125901E-1,-1.4787469E-2],"split_indices":[2,10,18,15,8,0,0,8,0,0,14,0,9,0,9,0,0,2,7,9,0,33,23,8,32,0,0,0,0,0,0,0,0,0,0],"split_type":[0,0,0,0,0,0,0,0,0,0,0,0,0,0,0,0,0,0,0,0,0,0,0,0,0,0,0,0,0,0,0,0,0,0,0],"sum_hessian":[2.4467693E3,1.4611577E3,9.8561163E2,2.544607E2,1.206697E3,9.476012E2,3.8010445E1,7.57747E1,1.7868599E2,5.5806057E1,1.150891E3,5.1010723E0,3.2909374E1,3.323068E1,4.254402E1,3.0828104E0,1.1478081E3,1.4915407E1,1.7993965E1,3.1787537E1,1.0756484E1,7.489493E0,7.4259143E0,2.8962739E0,1.5097692E1,3.0863545E0,2.8701183E1,3.8289776E0,3.6605155E0,4.085424E0,3.3404903E0,1.62651E0,1.2697638E0,1.34794E1,1.6182927E0],"tree_param":{"num_deleted":"0","num_feature":"47","num_nodes":"35","size_leaf_vector":"1"}},{"base_weights":[-3.8606852E-2,-5.174849E-1,1.9564834E-1,-1.5610349E-1,-2.1835826E-1,-1.560768E-1,3.4366596E-1,-1.33269E-1,2.2189169E-1,4.3182206E-1,-1.5661006E-1,-7.895855E-2,1.4806794E-1,-1.5702528E-1,5.22387E-1,5.5834806E-1,-1.5973115E-1,-1.5430623E-1,1.7483965E-1],"categories":[],"categories_nodes":[],"categories_segments":[],"categories_sizes":[],"default_left":[0,0,0,0,0,0,0,0,0,0,0,0,0,0,0,0,0,0,0],"id":34,"left_children":[1,3,5,-1,7,-1,9,-1,11,13,-1,-1,-1,-1,15,17,-1,-1,-1],"loss_changes":[2.670697E2,5.5540466E-1,1.6959914E2,0E0,1.006399E0,0E0,1.0138211E2,0E0,6.2573886E-1,1.04392365E2,0E0,0E0,0E0,0E0,4.201581E1,2.8207703E1,0E0,0E0,0E0],"parents":[2147483647,0,0,1,1,2,2,4,4,6,6,8,8,9,9,14,14,15,15],"right_children":[2,4,6,-1,8,-1,10,-1,12,14,-1,-1,-1,-1,16,18,-1,-1,-1],"split_conditions":[7.206923E1,7.13294E1,3E-1,-1.5610349E-1,3.1794864E-1,-1.560768E-1,2.5329472E1,-1.33269E-1,1.1483661E1,-5.0224314E0,-1.5661006E-1,-7.895855E-2,1.4806794E-1,-1.5702528E-1,7.021924E-1,2.9011768E1,-1.5973115E-1,-1.5430623E-1,1.7483965E-1],"split_indices":[4,4,9,0,9,0,5,0,8,5,0,0,0,0,9,6,0,0,0],"split_type":[0,0,0,0,0,0,0,0,0,0,0,0,0,0,0,0,0,0,0],"sum_hessian":[2.378829E3,7.8101794E2,1.5978113E3,7.7288855E2,8.129406E0,2.733256E2,1.3244857E3,5.3668733E0,2.7625322E0,1.2025305E3,1.2195516E2,1.0029202E0,1.7596122E0,1.0372327E2,1.0988073E3,1.0630369E3,3.577034E1,2.3243927E1,1.039793E3],"tree_param":{"num_deleted":"0","num_feature":"47","num_nodes":"19","size_leaf_vector":"1"}},{"base_weights":[2.2678083E-2,5.6246156E-1,-4.902514E-1,5.6572574E-1,-1.1440761E-1,-1.4686E-1,-1.5464127E-1,1.7018239E-1,1.7674486E-1,1.15970984E-1,-1.5127742E-1,1.13051884E-1,-4.8048683E-3,5.05145E-1,-4.1531827E-3,1.5476593E-1,3.0291805E-1,8.667701E-2,-1.3088226E-1,6.885965E-2,2.4694733E-2,6.946324E-2,2.1305488E-2],"categories":[],"categories_nodes":[],"categories_segments":[],"categories_sizes":[],"default_left":[0,0,0,0,0,0,0,0,0,0,0,0,0,0,0,0,0,0,0,0,0,0,0],"id":35,"left_children":[1,3,5,7,-1,9,-1,-1,11,13,-1,-1,-1,15,17,19,-1,21,-1,-1,-1,-1,-1],"loss_changes":[5.254605E2,3.0645752E0,8.3519745E0,4.5516968E-1,0E0,6.444145E0,0E0,0E0,2.0309007E-1,1.8713732E0,0E0,0E0,0E0,1.5125213E0,1.2759851E0,1.7679349E-2,0E0,4.4579506E-2,0E0,0E0,0E0,0E0,0E0],"parents":[2147483647,0,0,1,1,2,2,3,3,5,5,8,8,9,9,13,13,14,14,15,15,17,17],"right_children":[2,4,6,8,-1,10,-1,-1,12,14,-1,-1,-1,16,18,20,-1,22,-1,-1,-1,-1,-1],"split_conditions":[1.2007355E1,1E0,1E0,1E0,-1.1440761E-1,3.9715123E-1,-1.5464127E-1,1.7018239E-1,1.02235756E2,8.017778E1,-1.5127742E-1,1.13051884E-1,-4.8048683E-3,1.5159212E1,3.2005198E3,8.01339E1,3.0291805E-1,3.0250013E-1,-1.3088226E-1,6.885965E-2,2.4694733E-2,6.946324E-2,2.1305488E-2],"split_indices":[8,21,15,26,0,9,0,0,2,10,0,0,0,5,0,4,0,9,0,0,0,0,0],"split_type":[0,0,0,0,0,0,0,0,0,0,0,0,0,0,0,0,0,0,0,0,0,0,0],"sum_hessian":[1.8958582E3,9.23701E2,9.7215717E2,9.209166E2,2.7844052E0,6.6979416E1,9.0517773E2,9.168077E2,4.108947E0,3.8985176E1,2.7994236E1,1.5475563E0,2.5613906E0,8.439144E0,3.0546034E1,5.751826E0,2.6873186E0,2.590113E1,4.6449037E0,1.7636533E0,3.9881725E0,1.1816969E0,2.4719433E1],"tree_param":{"num_deleted":"0","num_feature":"47","num_nodes":"23","size_leaf_vector":"1"}},{"base_weights":[-6.8217814E-2,5.392576E-1,-5.051303E-1,-2.9212233E-1,1.6979751E-1,-5.108423E-1,3.3453458E-3,-1.4632608E-1,1.3275927E-1,-1.8959059E-1,-5.132828E-1,6.897273E-2,-9.131987E-2,1.6872019E-1,-1.0131189E-2,-1.3116068E-1,2.117002E-1,-1.5467495E-1,-3.4822643E-1,9.6488856E-2,2.5107862E-2,1.9487485E-1,1.0469267E-2,-8.607851E-2,1.5360203E-1,2.129316E-1,-1.461991E-1,1.1151413E-1,8.036075E-3,-2.1425523E-2,3.0803202E-2,-1.1644451E-2,9.511562E-2,-9.304456E-2,1.9628797E-1,4.1043118E-2,8.903659E-3,-2.996257E-2,2.7617166E-2],"categories":[],"categories_nodes":[],"categories_segments":[],"categories_sizes":[],"default_left":[0,0,0,0,0,0,0,0,0,0,0,0,0,0,0,0,0,0,0,0,0,0,0,0,0,0,0,0,0,0,0,0,0,0,0,0,0,0,0],"id":36,"left_children":[1,3,5,7,-1,9,11,-1,13,15,17,19,-1,21,-1,-1,23,-1,25,27,29,31,-1,-1,-1,33,-1,35,-1,37,-1,-1,-1,-1,-1,-1,-1,-1,-1],"loss_changes":[4.577312E2,1.6202133E1,2.9149475E0,1.9880185E0,0E0,6.803589E-1,2.6610205E-1,0E0,5.40912E-2,9.9321437E-1,1.9400024E-1,1.0634866E-2,0E0,1.7044097E-2,0E0,0E0,7.657195E-1,0E0,1.3998718E0,3.6068857E-3,2.2131888E-2,1.6878836E-1,0E0,0E0,0E0,1.1250719E0,0E0,6.007742E-3,0E0,4.728727E-2,0E0,0E0,0E0,0E0,0E0,0E0,0E0,0E0,0E0],"parents":[2147483647,0,0,1,1,2,2,3,3,5,5,6,6,8,8,9,9,10,10,11,11,13,13,16,16,18,18,19,19,20,20,21,21,25,25,27,27,29,29],"right_children":[2,4,6,8,-1,10,12,-1,14,16,18,20,-1,22,-1,-1,24,-1,26,28,30,32,-1,-1,-1,34,-1,36,-1,38,-1,-1,-1,-1,-1,-1,-1,-1,-1],"split_conditions":[8.5E1,1E0,1E0,1E0,1.6979751E-1,2.2895802E1,1.8092462E2,-1.4632608E-1,5.0032463E1,6.649436E1,1E0,1E0,-9.131987E-2,2.0049228E2,-1.0131189E-2,-1.3116068E-1,5.398E3,-1.5467495E-1,2.0507804E-1,1E0,1E0,1E0,1.0469267E-2,-8.607851E-2,1.5360203E-1,1.1391522E1,-1.461991E-1,1E0,8.036075E-3,1E0,3.0803202E-2,-1.1644451E-2,9.511562E-2,-9.304456E-2,1.9628797E-1,4.1043118E-2,8.903659E-3,-2.996257E-2,2.7617166E-2],"split_indices":[10,15,26,26,0,6,7,0,14,4,16,43,0,7,0,0,0,0,9,34,33,17,0,0,0,8,0,36,0,36,0,0,0,0,0,0,0,0,0],"split_type":[0,0,0,0,0,0,0,0,0,0,0,0,0,0,0,0,0,0,0,0,0,0,0,0,0,0,0,0,0,0,0,0,0,0,0,0,0,0,0],"sum_hessian":[1.7225697E3,7.2052716E2,1.0020425E3,2.2138378E1,6.983888E2,9.909064E2,1.1136106E1,1.5057412E1,7.080966E0,8.064209E0,9.8284216E2,9.818222E0,1.317884E0,5.8126206E0,1.2683456E0,4.931683E0,3.1325254E0,9.672381E2,1.56041E1,5.296242E0,4.52198E0,4.4806857E0,1.331935E0,1.1942098E0,1.9383156E0,2.9942565E0,1.2609844E1,3.8635304E0,1.4327118E0,3.2788248E0,1.2431549E0,1.7725726E0,2.708113E0,1.5063252E0,1.4879311E0,2.438105E0,1.4254253E0,2.0095484E0,1.2692765E0],"tree_param":{"num_deleted":"0","num_feature":"47","num_nodes":"39","size_leaf_vector":"1"}},{"base_weights":[4.2351548E-2,-4.37499E-1,3.576435E-1,-4.8993048E-1,2.7148413E-2,-1.5181334E-1,3.9563653E-1,-5.00341E-1,1.0156396E-1,-1.487873E-1,2.0298925E-1,4.1976044E-1,-1.500103E-1,2.8844002E-1,-5.061303E-1,1.22513756E-1,5.6634203E-2,-1.11293234E-1,2.2734204E-1,-1.4698823E-1,4.3445596E-1,-8.137741E-2,1.3859716E-1,-1.5422438E-1,-2.5712904E-1,4.980426E-2,-1.3589387E-2,1.51235135E-2,4.032044E-2,1.6180253E-1,1.5141843E-1,3.588526E-1,5.747914E-1,-1.4936796E-1,1.745474E-1,-4.439898E-3,1.8860059E-2,5.5822216E-2,1.0618389E-2,1.7299058E-1,5.4317422E-2,6.85689E-2,1.727156E-1],"categories":[],"categories_nodes":[],"categories_segments":[],"categories_sizes":[],"default_left":[0,0,0,0,0,0,0,0,0,0,0,0,0,0,0,0,0,0,0,0,0,0,0,0,0,0,0,0,0,0,0,0,0,0,0,0,0,0,0,0,0,0,0],"id":37,"left_children":[1,3,5,7,9,-1,11,13,15,-1,17,19,-1,21,23,25,27,-1,29,-1,31,-1,-1,-1,33,-1,-1,35,-1,-1,37,39,41,-1,-1,-1,-1,-1,-1,-1,-1,-1,-1],"loss_changes":[3.284061E2,2.09832E1,4.3182495E1,4.814041E0,8.216163E0,0E0,2.733197E1,3.61792E0,6.437123E-3,0E0,1.0172234E0,1.6561142E1,0E0,7.2529364E-1,1.3628387E0,7.199025E-2,1.8558355E-2,0E0,1.4496434E0,0E0,1.2567474E1,0E0,0E0,0E0,5.413626E0,0E0,0E0,8.481422E-3,0E0,0E0,2.0805955E-1,3.029483E1,3.2043457E-3,0E0,0E0,0E0,0E0,0E0,0E0,0E0,0E0,0E0,0E0],"parents":[2147483647,0,0,1,1,2,2,3,3,4,4,6,6,7,7,8,8,10,10,11,11,13,13,14,14,15,15,16,16,18,18,20,20,24,24,27,27,30,30,31,31,32,32],"right_children":[2,4,6,8,10,-1,12,14,16,-1,18,20,-1,22,24,26,28,-1,30,-1,32,-1,-1,-1,34,-1,-1,36,-1,-1,38,40,42,-1,-1,-1,-1,-1,-1,-1,-1,-1,-1],"split_conditions":[1.09092476E2,1E0,8.5E1,1E0,3.0140063E3,-1.5181334E-1,1E2,4.3186487E2,1E0,-1.487873E-1,1.8352267E-1,8.4765495E1,-1.500103E-1,1.058908E2,1E0,1E0,1E0,-1.11293234E-1,3.8099435E-1,-1.4698823E-1,2.5329472E1,-8.137741E-2,1.3859716E-1,-1.5422438E-1,8.01339E1,4.980426E-2,-1.3589387E-2,1E0,4.032044E-2,1.6180253E-1,6.0075966E1,-5.0224314E0,1.2007355E1,-1.4936796E-1,1.745474E-1,-4.439898E-3,1.8860059E-2,5.5822216E-2,1.0618389E-2,1.7299058E-1,5.4317422E-2,6.85689E-2,1.727156E-1],"split_indices":[1,44,10,19,0,0,4,0,26,0,9,4,0,1,16,34,34,0,9,0,5,0,0,0,4,0,0,35,0,0,6,5,8,0,0,0,0,0,0,0,0,0,0],"split_type":[0,0,0,0,0,0,0,0,0,0,0,0,0,0,0,0,0,0,0,0,0,0,0,0,0,0,0,0,0,0,0,0,0,0,0,0,0,0,0,0,0,0,0],"sum_hessian":[2.1686284E3,8.597565E2,1.308872E3,7.7252875E2,8.722774E1,5.4631237E1,1.2542407E3,7.5931854E2,1.321019E1,2.1486727E1,6.574101E1,1.2218625E3,3.2378166E1,5.1766577E0,7.541419E2,7.8316665E0,5.378524E0,2.0964587E0,6.364455E1,1.890994E1,1.2029526E3,1.0919952E0,4.0846624E0,7.297746E2,2.4367298E1,6.227956E0,1.6037103E0,4.285485E0,1.093039E0,1.1261777E1,5.2382774E1,7.8409265E2,4.1885995E2,1.9249561E1,5.117736E0,3.0585518E0,1.226933E0,3.9870064E1,1.2512712E1,3.5140683E2,4.3268582E2,1.7798681E0,4.1708008E2],"tree_param":{"num_deleted":"0","num_feature":"47","num_nodes":"43","size_leaf_vector":"1"}},{"base_weights":[2.2478027E-2,3.548082E-1,-4.963696E-1,-3.6896592E-1,5.1148677E-1,-1.5467303E-1,8.8495515E-2,-9.1149226E-2,-1.5342431E-1,-1.5107912E-1,5.5994326E-1,-1.278444E-1,2.1324293E-1,-1.4971678E-1,1.6110902E-1,5.6514853E-1,1.2768902E-1,8.48769E-2,3.184793E-1,2.0449097E-1,1.1518595E-2,1.9812591E-1,1.6980956E-1,1.532535E-2,1.3529009E-1,3.5091087E-1,-1.5870228E-1,3.638994E-2,1.2624536E-1,2.410228E-2,-1.351088E-1,7.003768E-2,2.113634E-2,-5.866984E-2,6.47231E-2,4.9331825E-2,1.285534E-1,-1.218699E-2,-7.200953E-2,-1.0072973E-2,3.0841181E-2],"categories":[],"categories_nodes":[],"categories_segments":[],"categories_sizes":[],"default_left":[0,0,0,0,0,0,0,0,0,0,0,0,0,0,0,0,0,0,0,0,0,0,0,0,0,0,0,0,0,0,0,0,0,0,0,0,0,0,0,0,0],"id":38,"left_children":[1,3,5,7,9,-1,11,13,-1,-1,15,-1,17,-1,19,21,23,25,27,-1,29,31,-1,33,-1,35,37,39,-1,-1,-1,-1,-1,-1,-1,-1,-1,-1,-1,-1,-1],"loss_changes":[3.2974515E2,1.3237494E2,8.433426E0,8.185431E0,4.7435562E1,0E0,1.6698638E0,7.46053E0,0E0,0E0,1.9876099E0,0E0,2.4939418E-1,0E0,3.5017622E0,1.8103027E-1,4.3569112E-1,7.413844E-1,2.988069E-1,0E0,1.1814368E0,2.8654933E-4,0E0,4.6811396E-1,0E0,7.228315E-3,4.9909934E-2,2.1998402E-2,0E0,0E0,0E0,0E0,0E0,0E0,0E0,0E0,0E0,0E0,0E0,0E0,0E0],"parents":[2147483647,0,0,1,1,2,2,3,3,4,4,6,6,7,7,10,10,12,12,14,14,15,15,16,16,17,17,18,18,20,20,21,21,23,23,25,25,26,26,27,27],"right_children":[2,4,6,8,10,-1,12,14,-1,-1,16,-1,18,-1,20,22,24,26,28,-1,30,32,-1,34,-1,36,38,40,-1,-1,-1,-1,-1,-1,-1,-1,-1,-1,-1,-1,-1],"split_conditions":[1.002216E2,9.5E1,1E0,1E0,1.1483661E1,-1.5467303E-1,5.2095703E3,1.2007355E1,-1.5342431E-1,-1.5107912E-1,3.527129E3,-1.278444E-1,5.023706E1,-1.4971678E-1,5.0451904E1,2.5735159E1,1E0,2.2895802E1,9.004605E1,2.0449097E-1,6.1534164E1,4.0131348E-1,1.6980956E-1,6.0052603E-1,1.3529009E-1,1.281187E1,6.0052603E-1,6.0052603E-1,1.2624536E-1,2.410228E-2,-1.351088E-1,7.003768E-2,2.113634E-2,-5.866984E-2,6.47231E-2,4.9331825E-2,1.285534E-1,-1.218699E-2,-7.200953E-2,-1.0072973E-2,3.0841181E-2],"split_indices":[2,10,18,15,8,0,0,8,0,0,0,0,6,0,4,14,30,6,10,0,14,9,0,9,0,8,9,9,0,0,0,0,0,0,0,0,0,0,0,0,0],"split_type":[0,0,0,0,0,0,0,0,0,0,0,0,0,0,0,0,0,0,0,0,0,0,0,0,0,0,0,0,0,0,0,0,0,0,0,0,0,0,0,0,0],"sum_hessian":[1.9103347E3,1.1646647E3,7.4567017E2,2.0701357E2,9.5765106E2,7.2207544E2,2.35947E1,7.072287E1,1.362907E2,4.3204105E1,9.1444696E2,4.1320224E0,1.9462677E1,2.6650354E1,4.4072517E1,9.032623E2,1.1184611E1,9.581642E0,9.881035E0,9.044348E0,3.5028168E1,2.709754E0,9.005526E2,9.077051E0,2.1075597E0,4.369112E0,5.21253E0,2.9913003E0,6.8897347E0,3.1204603E1,3.823566E0,1.4733999E0,1.236354E0,4.434758E0,4.642293E0,2.2004807E0,2.1686313E0,2.7375226E0,2.4750075E0,1.6974685E0,1.293832E0],"tree_param":{"num_deleted":"0","num_feature":"47","num_nodes":"41","size_leaf_vector":"1"}},{"base_weights":[-3.184853E-2,-5.1174474E-1,1.8793032E-1,-1.54476E-1,-1.9725227E-1,-1.5430595E-1,3.2353485E-1,-1.2601751E-1,2.0084007E-1,4.0387803E-1,-1.5443096E-1,-2.5466533E-2,1.17907524E-1,-1.5466E-1,4.8574796E-1,-1.9106308E-1,5.396726E-1,1.2054488E-1,-1.3761976E-1,1.72355E-1,-1.3815902E-1],"categories":[],"categories_nodes":[],"categories_segments":[],"categories_sizes":[],"default_left":[0,0,0,0,0,0,0,0,0,0,0,0,0,0,0,0,0,0,0,0,0],"id":39,"left_children":[1,3,5,-1,7,-1,9,-1,11,13,-1,-1,-1,-1,15,17,19,-1,-1,-1,-1],"loss_changes":[1.9975232E2,4.9246216E-1,1.2388406E2,0E0,7.555499E-1,0E0,7.358613E1,0E0,2.1962509E-1,7.5127335E1,0E0,0E0,0E0,0E0,3.3458603E1,1.1004501E1,2.9774643E1,0E0,0E0,0E0,0E0],"parents":[2147483647,0,0,1,1,2,2,4,4,6,6,8,8,9,9,14,14,15,15,16,16],"right_children":[2,4,6,-1,8,-1,10,-1,12,14,-1,-1,-1,-1,16,18,20,-1,-1,-1,-1],"split_conditions":[7.206923E1,7.13294E1,3E-1,-1.54476E-1,3.1794864E-1,-1.5430595E-1,2.5329472E1,-1.2601751E-1,3E0,-5.0224314E0,-1.5443096E-1,-2.5466533E-2,1.17907524E-1,-1.5466E-1,5.176091E0,1.1288618E2,1.1950048E2,1.2054488E-1,-1.3761976E-1,1.72355E-1,-1.3815902E-1],"split_indices":[4,4,9,0,9,0,5,0,15,5,0,0,0,0,11,1,11,0,0,0,0],"split_type":[0,0,0,0,0,0,0,0,0,0,0,0,0,0,0,0,0,0,0,0,0],"sum_hessian":[1.891995E3,5.938878E2,1.2981072E3,5.873207E2,6.567138E0,2.096348E2,1.0884724E3,4.175178E0,2.3919601E0,9.937496E2,9.472281E1,1.1863976E0,1.2055625E0,8.082098E1,9.129286E2,6.7181915E1,8.4574664E2,2.0740717E1,4.6441196E1,8.176865E2,2.806013E1],"tree_param":{"num_deleted":"0","num_feature":"47","num_nodes":"21","size_leaf_vector":"1"}},{"base_weights":[2.027828E-2,5.434379E-1,-4.8019668E-1,5.467354E-1,-1.0658298E-1,-1.2008402E-1,-1.5341291E-1,1.6463144E-1,1.3210988E-1,1.05417415E-1,-1.4876848E-1,-1.4238782E-2,1.0596674E-1,4.4510603E-1,-6.909689E-5,1.3253973E-1,2.7173385E-1,7.21669E-2,-1.2415983E-1,6.027362E-2,2.0631984E-2,2.4385855E-2,-2.38526E-2],"categories":[],